digraph Tree {
node [shape=box, style="filled, rounded", color="black", fontname=helvetica] ;
edge [fontname=helvetica] ;
0 [label=<Light Gray &le; 0.397<br/>gini = 0.89<br/>samples = 1434<br/>value = [97, 145, 153, 112, 138, 129, 166, 101, 130, 263]<br/>class = Technic>, fillcolor="#e5395814"] ;
1 [label=<Medium Azure &le; 0.006<br/>gini = 0.897<br/>samples = 1341<br/>value = [97, 145, 153, 111, 138, 129, 166, 101, 130, 171]<br/>class = Technic>, fillcolor="#e5395801"] ;
0 -> 1 [labeldistance=2.5, labelangle=45, headlabel="True"] ;
2 [label=<Pearl Gold &le; 0.018<br/>gini = 0.894<br/>samples = 1199<br/>value = [97, 140, 153, 111, 132, 95, 73, 99, 130, 169]<br/>class = Technic>, fillcolor="#e5395804"] ;
1 -> 2 ;
3 [label=<Yellow &le; 0.053<br/>gini = 0.885<br/>samples = 1091<br/>value = [97, 140, 148, 110, 130, 88, 64, 18, 128, 168]<br/>class = Technic>, fillcolor="#e5395805"] ;
2 -> 3 ;
4 [label=<Black &le; 0.854<br/>gini = 0.853<br/>samples = 608<br/>value = [62, 12, 76, 16, 84, 34, 52, 14, 122, 136]<br/>class = Technic>, fillcolor="#e5395807"] ;
3 -> 4 ;
5 [label=<Light Gray &le; 0.005<br/>gini = 0.86<br/>samples = 563<br/>value = [62, 12, 76, 16, 84, 34, 52, 14, 122, 91]<br/>class = Star Wars>, fillcolor="#e539c011"] ;
4 -> 5 ;
6 [label=<Light Flesh &le; 0.001<br/>gini = 0.846<br/>samples = 485<br/>value = [16, 8, 76, 10, 83, 33, 52, 14, 114, 79]<br/>class = Star Wars>, fillcolor="#e539c014"] ;
5 -> 6 ;
7 [label=<White &le; 0.038<br/>gini = 0.851<br/>samples = 426<br/>value = [16, 8, 76, 10, 83, 32, 36, 14, 72, 79]<br/>class = Creator>, fillcolor="#39e5c503"] ;
6 -> 7 ;
8 [label=<Blue &le; 0.097<br/>gini = 0.81<br/>samples = 222<br/>value = [3, 3, 30, 8, 23, 14, 10, 9, 56, 66]<br/>class = Technic>, fillcolor="#e539580f"] ;
7 -> 8 ;
9 [label=<Dark Bluish Gray &le; 0.018<br/>gini = 0.817<br/>samples = 173<br/>value = [1, 3, 28, 4, 21, 11, 10, 8, 52, 35]<br/>class = Star Wars>, fillcolor="#e539c01f"] ;
8 -> 9 ;
10 [label=<Reddish Brown &le; 0.027<br/>gini = 0.816<br/>samples = 95<br/>value = [0, 3, 15, 1, 9, 10, 9, 1, 18, 29]<br/>class = Technic>, fillcolor="#e5395824"] ;
9 -> 10 ;
11 [label=<Orange &le; 0.02<br/>gini = 0.774<br/>samples = 74<br/>value = [0, 3, 5, 1, 7, 6, 7, 1, 15, 29]<br/>class = Technic>, fillcolor="#e539583d"] ;
10 -> 11 ;
12 [label=<Black &le; 0.406<br/>gini = 0.761<br/>samples = 71<br/>value = [0, 3, 5, 1, 4, 6, 7, 1, 15, 29]<br/>class = Technic>, fillcolor="#e5395840"] ;
11 -> 12 ;
13 [label=<Dark Tan &le; 0.111<br/>gini = 0.723<br/>samples = 62<br/>value = [0, 3, 1, 0, 4, 6, 7, 0, 13, 28]<br/>class = Technic>, fillcolor="#e539584e"] ;
12 -> 13 ;
14 [label=<Light Aqua &le; 0.024<br/>gini = 0.714<br/>samples = 59<br/>value = [0, 3, 1, 0, 4, 6, 7, 0, 10, 28]<br/>class = Technic>, fillcolor="#e539585e"] ;
13 -> 14 ;
15 [label=<Bright Green &le; 0.071<br/>gini = 0.701<br/>samples = 57<br/>value = [0, 3, 1, 0, 4, 6, 5, 0, 10, 28]<br/>class = Technic>, fillcolor="#e5395862"] ;
14 -> 15 ;
16 [label=<Pearl Dark Gray &le; 0.5<br/>gini = 0.677<br/>samples = 54<br/>value = [0, 3, 1, 0, 4, 4, 4, 0, 10, 28]<br/>class = Technic>, fillcolor="#e5395868"] ;
15 -> 16 ;
17 [label=<Trans-Light Blue &le; 0.05<br/>gini = 0.665<br/>samples = 52<br/>value = [0, 3, 1, 0, 4, 4, 4, 0, 8, 28]<br/>class = Technic>, fillcolor="#e5395874"] ;
16 -> 17 ;
18 [label=<Red &le; 0.586<br/>gini = 0.637<br/>samples = 49<br/>value = [0, 3, 1, 0, 4, 4, 3, 0, 6, 28]<br/>class = Technic>, fillcolor="#e5395882"] ;
17 -> 18 ;
19 [label=<Red &le; 0.028<br/>gini = 0.699<br/>samples = 40<br/>value = [0, 2, 1, 0, 4, 4, 3, 0, 6, 20]<br/>class = Technic>, fillcolor="#e5395869"] ;
18 -> 19 ;
20 [label=<Medium Dark Flesh &le; 0.5<br/>gini = 0.644<br/>samples = 36<br/>value = [0, 2, 0, 0, 3, 3, 2, 0, 6, 20]<br/>class = Technic>, fillcolor="#e5395877"] ;
19 -> 20 ;
21 [label=<Dark Purple &le; 0.5<br/>gini = 0.625<br/>samples = 35<br/>value = [0, 2, 0, 0, 3, 3, 1, 0, 6, 20]<br/>class = Technic>, fillcolor="#e539587b"] ;
20 -> 21 ;
22 [label=<Dark Red &le; 0.071<br/>gini = 0.604<br/>samples = 34<br/>value = [0, 2, 0, 0, 3, 3, 0, 0, 6, 20]<br/>class = Technic>, fillcolor="#e5395880"] ;
21 -> 22 ;
23 [label=<Dark Green &le; 0.222<br/>gini = 0.59<br/>samples = 33<br/>value = [0, 2, 0, 0, 3, 3, 0, 0, 5, 20]<br/>class = Technic>, fillcolor="#e5395889"] ;
22 -> 23 ;
24 [label=<Unknown &le; 0.5<br/>gini = 0.572<br/>samples = 32<br/>value = [0, 2, 0, 0, 3, 3, 0, 0, 4, 20]<br/>class = Technic>, fillcolor="#e5395892"] ;
23 -> 24 ;
25 [label=<Royal Blue &le; 0.5<br/>gini = 0.552<br/>samples = 31<br/>value = [0, 2, 0, 0, 3, 3, 0, 0, 3, 20]<br/>class = Technic>, fillcolor="#e539589b"] ;
24 -> 25 ;
26 [label=<Tan &le; 0.5<br/>gini = 0.488<br/>samples = 26<br/>value = [0, 0, 0, 0, 3, 3, 0, 0, 2, 18]<br/>class = Technic>, fillcolor="#e53958a6"] ;
25 -> 26 ;
27 [label=<[No Color] &le; 0.5<br/>gini = 0.465<br/>samples = 24<br/>value = [0, 0, 0, 0, 3, 3, 0, 0, 1, 17]<br/>class = Technic>, fillcolor="#e53958aa"] ;
26 -> 27 ;
28 [label=<Green &le; 0.5<br/>gini = 0.398<br/>samples = 16<br/>value = [0, 0, 0, 0, 1, 3, 0, 0, 0, 12]<br/>class = Technic>, fillcolor="#e53958b1"] ;
27 -> 28 ;
29 [label=<Dark Gray &le; 0.5<br/>gini = 0.198<br/>samples = 9<br/>value = [0, 0, 0, 0, 0, 1, 0, 0, 0, 8]<br/>class = Technic>, fillcolor="#e53958df"] ;
28 -> 29 ;
30 [label=<gini = 0.0<br/>samples = 4<br/>value = [0, 0, 0, 0, 0, 0, 0, 0, 0, 4]<br/>class = Technic>, fillcolor="#e53958ff"] ;
29 -> 30 ;
31 [label=<gini = 0.32<br/>samples = 5<br/>value = [0, 0, 0, 0, 0, 1, 0, 0, 0, 4]<br/>class = Technic>, fillcolor="#e53958bf"] ;
29 -> 31 ;
32 [label=<gini = 0.571<br/>samples = 7<br/>value = [0, 0, 0, 0, 1, 2, 0, 0, 0, 4]<br/>class = Technic>, fillcolor="#e5395866"] ;
28 -> 32 ;
33 [label=<gini = 0.531<br/>samples = 8<br/>value = [0, 0, 0, 0, 2, 0, 0, 0, 1, 5]<br/>class = Technic>, fillcolor="#e5395880"] ;
27 -> 33 ;
34 [label=<gini = 0.5<br/>samples = 2<br/>value = [0, 0, 0, 0, 0, 0, 0, 0, 1, 1]<br/>class = Star Wars>, fillcolor="#e539c000"] ;
26 -> 34 ;
35 [label=<gini = 0.64<br/>samples = 5<br/>value = [0, 2, 0, 0, 0, 0, 0, 0, 1, 2]<br/>class = Basic Set>, fillcolor="#e2e53900"] ;
25 -> 35 ;
36 [label=<gini = 0.0<br/>samples = 1<br/>value = [0, 0, 0, 0, 0, 0, 0, 0, 1, 0]<br/>class = Star Wars>, fillcolor="#e539c0ff"] ;
24 -> 36 ;
37 [label=<gini = 0.0<br/>samples = 1<br/>value = [0, 0, 0, 0, 0, 0, 0, 0, 1, 0]<br/>class = Star Wars>, fillcolor="#e539c0ff"] ;
23 -> 37 ;
38 [label=<gini = 0.0<br/>samples = 1<br/>value = [0, 0, 0, 0, 0, 0, 0, 0, 1, 0]<br/>class = Star Wars>, fillcolor="#e539c0ff"] ;
22 -> 38 ;
39 [label=<gini = 0.0<br/>samples = 1<br/>value = [0, 0, 0, 0, 0, 0, 1, 0, 0, 0]<br/>class = Friends>, fillcolor="#3c39e5ff"] ;
21 -> 39 ;
40 [label=<gini = 0.0<br/>samples = 1<br/>value = [0, 0, 0, 0, 0, 0, 1, 0, 0, 0]<br/>class = Friends>, fillcolor="#3c39e5ff"] ;
20 -> 40 ;
41 [label=<Red &le; 0.057<br/>gini = 0.75<br/>samples = 4<br/>value = [0, 0, 1, 0, 1, 1, 1, 0, 0, 0]<br/>class = City>, fillcolor="#7be53900"] ;
19 -> 41 ;
42 [label=<gini = 0.0<br/>samples = 1<br/>value = [0, 0, 1, 0, 0, 0, 0, 0, 0, 0]<br/>class = City>, fillcolor="#7be539ff"] ;
41 -> 42 ;
43 [label=<Chrome Silver &le; 0.118<br/>gini = 0.667<br/>samples = 3<br/>value = [0, 0, 0, 0, 1, 1, 1, 0, 0, 0]<br/>class = Creator>, fillcolor="#39e5c500"] ;
41 -> 43 ;
44 [label=<Red &le; 0.536<br/>gini = 0.5<br/>samples = 2<br/>value = [0, 0, 0, 0, 1, 0, 1, 0, 0, 0]<br/>class = Creator>, fillcolor="#39e5c500"] ;
43 -> 44 ;
45 [label=<gini = 0.0<br/>samples = 1<br/>value = [0, 0, 0, 0, 1, 0, 0, 0, 0, 0]<br/>class = Creator>, fillcolor="#39e5c5ff"] ;
44 -> 45 ;
46 [label=<gini = 0.0<br/>samples = 1<br/>value = [0, 0, 0, 0, 0, 0, 1, 0, 0, 0]<br/>class = Friends>, fillcolor="#3c39e5ff"] ;
44 -> 46 ;
47 [label=<gini = 0.0<br/>samples = 1<br/>value = [0, 0, 0, 0, 0, 1, 0, 0, 0, 0]<br/>class = Duplo>, fillcolor="#399de5ff"] ;
43 -> 47 ;
48 [label=<Black &le; 0.2<br/>gini = 0.198<br/>samples = 9<br/>value = [0, 1, 0, 0, 0, 0, 0, 0, 0, 8]<br/>class = Technic>, fillcolor="#e53958df"] ;
18 -> 48 ;
49 [label=<gini = 0.219<br/>samples = 8<br/>value = [0, 1, 0, 0, 0, 0, 0, 0, 0, 7]<br/>class = Technic>, fillcolor="#e53958db"] ;
48 -> 49 ;
50 [label=<gini = 0.0<br/>samples = 1<br/>value = [0, 0, 0, 0, 0, 0, 0, 0, 0, 1]<br/>class = Technic>, fillcolor="#e53958ff"] ;
48 -> 50 ;
51 [label=<Trans-Dark Pink &le; 0.167<br/>gini = 0.444<br/>samples = 3<br/>value = [0, 0, 0, 0, 0, 0, 1, 0, 2, 0]<br/>class = Star Wars>, fillcolor="#e539c07f"] ;
17 -> 51 ;
52 [label=<gini = 0.0<br/>samples = 2<br/>value = [0, 0, 0, 0, 0, 0, 0, 0, 2, 0]<br/>class = Star Wars>, fillcolor="#e539c0ff"] ;
51 -> 52 ;
53 [label=<gini = 0.0<br/>samples = 1<br/>value = [0, 0, 0, 0, 0, 0, 1, 0, 0, 0]<br/>class = Friends>, fillcolor="#3c39e5ff"] ;
51 -> 53 ;
54 [label=<gini = 0.0<br/>samples = 2<br/>value = [0, 0, 0, 0, 0, 0, 0, 0, 2, 0]<br/>class = Star Wars>, fillcolor="#e539c0ff"] ;
16 -> 54 ;
55 [label=<Bright Green &le; 0.282<br/>gini = 0.444<br/>samples = 3<br/>value = [0, 0, 0, 0, 0, 2, 1, 0, 0, 0]<br/>class = Duplo>, fillcolor="#399de57f"] ;
15 -> 55 ;
56 [label=<gini = 0.0<br/>samples = 2<br/>value = [0, 0, 0, 0, 0, 2, 0, 0, 0, 0]<br/>class = Duplo>, fillcolor="#399de5ff"] ;
55 -> 56 ;
57 [label=<gini = 0.0<br/>samples = 1<br/>value = [0, 0, 0, 0, 0, 0, 1, 0, 0, 0]<br/>class = Friends>, fillcolor="#3c39e5ff"] ;
55 -> 57 ;
58 [label=<gini = 0.0<br/>samples = 2<br/>value = [0, 0, 0, 0, 0, 0, 2, 0, 0, 0]<br/>class = Friends>, fillcolor="#3c39e5ff"] ;
14 -> 58 ;
59 [label=<gini = 0.0<br/>samples = 3<br/>value = [0, 0, 0, 0, 0, 0, 0, 0, 3, 0]<br/>class = Star Wars>, fillcolor="#e539c0ff"] ;
13 -> 59 ;
60 [label=<Black &le; 0.618<br/>gini = 0.716<br/>samples = 9<br/>value = [0, 0, 4, 1, 0, 0, 0, 1, 2, 1]<br/>class = City>, fillcolor="#7be53949"] ;
12 -> 60 ;
61 [label=<Bright Green &le; 0.056<br/>gini = 0.32<br/>samples = 5<br/>value = [0, 0, 4, 0, 0, 0, 0, 1, 0, 0]<br/>class = City>, fillcolor="#7be539bf"] ;
60 -> 61 ;
62 [label=<gini = 0.0<br/>samples = 4<br/>value = [0, 0, 4, 0, 0, 0, 0, 0, 0, 0]<br/>class = City>, fillcolor="#7be539ff"] ;
61 -> 62 ;
63 [label=<gini = 0.0<br/>samples = 1<br/>value = [0, 0, 0, 0, 0, 0, 0, 1, 0, 0]<br/>class = Ninjago>, fillcolor="#a339e5ff"] ;
61 -> 63 ;
64 [label=<Green &le; 0.167<br/>gini = 0.625<br/>samples = 4<br/>value = [0, 0, 0, 1, 0, 0, 0, 0, 2, 1]<br/>class = Star Wars>, fillcolor="#e539c055"] ;
60 -> 64 ;
65 [label=<Trans-Clear &le; 0.023<br/>gini = 0.444<br/>samples = 3<br/>value = [0, 0, 0, 1, 0, 0, 0, 0, 2, 0]<br/>class = Star Wars>, fillcolor="#e539c07f"] ;
64 -> 65 ;
66 [label=<gini = 0.0<br/>samples = 2<br/>value = [0, 0, 0, 0, 0, 0, 0, 0, 2, 0]<br/>class = Star Wars>, fillcolor="#e539c0ff"] ;
65 -> 66 ;
67 [label=<gini = 0.0<br/>samples = 1<br/>value = [0, 0, 0, 1, 0, 0, 0, 0, 0, 0]<br/>class = Construction>, fillcolor="#39e55eff"] ;
65 -> 67 ;
68 [label=<gini = 0.0<br/>samples = 1<br/>value = [0, 0, 0, 0, 0, 0, 0, 0, 0, 1]<br/>class = Technic>, fillcolor="#e53958ff"] ;
64 -> 68 ;
69 [label=<gini = 0.0<br/>samples = 3<br/>value = [0, 0, 0, 0, 3, 0, 0, 0, 0, 0]<br/>class = Creator>, fillcolor="#39e5c5ff"] ;
11 -> 69 ;
70 [label=<Flat Silver &le; 0.012<br/>gini = 0.698<br/>samples = 21<br/>value = [0, 0, 10, 0, 2, 4, 2, 0, 3, 0]<br/>class = City>, fillcolor="#7be5395a"] ;
10 -> 70 ;
71 [label=<Bright Green &le; 0.052<br/>gini = 0.636<br/>samples = 18<br/>value = [0, 0, 10, 0, 2, 1, 2, 0, 3, 0]<br/>class = City>, fillcolor="#7be53977"] ;
70 -> 71 ;
72 [label=<Red &le; 0.162<br/>gini = 0.555<br/>samples = 16<br/>value = [0, 0, 10, 0, 2, 0, 1, 0, 3, 0]<br/>class = City>, fillcolor="#7be53989"] ;
71 -> 72 ;
73 [label=<Trans-Yellow &le; 0.327<br/>gini = 0.439<br/>samples = 14<br/>value = [0, 0, 10, 0, 1, 0, 0, 0, 3, 0]<br/>class = City>, fillcolor="#7be539a2"] ;
72 -> 73 ;
74 [label=<Trans-Orange &le; 0.155<br/>gini = 0.355<br/>samples = 13<br/>value = [0, 0, 10, 0, 0, 0, 0, 0, 3, 0]<br/>class = City>, fillcolor="#7be539b3"] ;
73 -> 74 ;
75 [label=<Reddish Brown &le; 0.786<br/>gini = 0.278<br/>samples = 12<br/>value = [0, 0, 10, 0, 0, 0, 0, 0, 2, 0]<br/>class = City>, fillcolor="#7be539cc"] ;
74 -> 75 ;
76 [label=<Tan &le; 0.432<br/>gini = 0.165<br/>samples = 11<br/>value = [0, 0, 10, 0, 0, 0, 0, 0, 1, 0]<br/>class = City>, fillcolor="#7be539e6"] ;
75 -> 76 ;
77 [label=<gini = 0.0<br/>samples = 8<br/>value = [0, 0, 8, 0, 0, 0, 0, 0, 0, 0]<br/>class = City>, fillcolor="#7be539ff"] ;
76 -> 77 ;
78 [label=<Tan &le; 0.583<br/>gini = 0.444<br/>samples = 3<br/>value = [0, 0, 2, 0, 0, 0, 0, 0, 1, 0]<br/>class = City>, fillcolor="#7be5397f"] ;
76 -> 78 ;
79 [label=<gini = 0.5<br/>samples = 2<br/>value = [0, 0, 1, 0, 0, 0, 0, 0, 1, 0]<br/>class = City>, fillcolor="#7be53900"] ;
78 -> 79 ;
80 [label=<gini = 0.0<br/>samples = 1<br/>value = [0, 0, 1, 0, 0, 0, 0, 0, 0, 0]<br/>class = City>, fillcolor="#7be539ff"] ;
78 -> 80 ;
81 [label=<gini = 0.0<br/>samples = 1<br/>value = [0, 0, 0, 0, 0, 0, 0, 0, 1, 0]<br/>class = Star Wars>, fillcolor="#e539c0ff"] ;
75 -> 81 ;
82 [label=<gini = 0.0<br/>samples = 1<br/>value = [0, 0, 0, 0, 0, 0, 0, 0, 1, 0]<br/>class = Star Wars>, fillcolor="#e539c0ff"] ;
74 -> 82 ;
83 [label=<gini = 0.0<br/>samples = 1<br/>value = [0, 0, 0, 0, 1, 0, 0, 0, 0, 0]<br/>class = Creator>, fillcolor="#39e5c5ff"] ;
73 -> 83 ;
84 [label=<Green &le; 0.196<br/>gini = 0.5<br/>samples = 2<br/>value = [0, 0, 0, 0, 1, 0, 1, 0, 0, 0]<br/>class = Creator>, fillcolor="#39e5c500"] ;
72 -> 84 ;
85 [label=<gini = 0.0<br/>samples = 1<br/>value = [0, 0, 0, 0, 1, 0, 0, 0, 0, 0]<br/>class = Creator>, fillcolor="#39e5c5ff"] ;
84 -> 85 ;
86 [label=<gini = 0.0<br/>samples = 1<br/>value = [0, 0, 0, 0, 0, 0, 1, 0, 0, 0]<br/>class = Friends>, fillcolor="#3c39e5ff"] ;
84 -> 86 ;
87 [label=<Dark Purple &le; 0.086<br/>gini = 0.5<br/>samples = 2<br/>value = [0, 0, 0, 0, 0, 1, 1, 0, 0, 0]<br/>class = Duplo>, fillcolor="#399de500"] ;
71 -> 87 ;
88 [label=<gini = 0.0<br/>samples = 1<br/>value = [0, 0, 0, 0, 0, 1, 0, 0, 0, 0]<br/>class = Duplo>, fillcolor="#399de5ff"] ;
87 -> 88 ;
89 [label=<gini = 0.0<br/>samples = 1<br/>value = [0, 0, 0, 0, 0, 0, 1, 0, 0, 0]<br/>class = Friends>, fillcolor="#3c39e5ff"] ;
87 -> 89 ;
90 [label=<gini = 0.0<br/>samples = 3<br/>value = [0, 0, 0, 0, 0, 3, 0, 0, 0, 0]<br/>class = Duplo>, fillcolor="#399de5ff"] ;
70 -> 90 ;
91 [label=<Red &le; 0.003<br/>gini = 0.743<br/>samples = 78<br/>value = [1, 0, 13, 3, 12, 1, 1, 7, 34, 6]<br/>class = Star Wars>, fillcolor="#e539c052"] ;
9 -> 91 ;
92 [label=<Orange &le; 0.166<br/>gini = 0.546<br/>samples = 44<br/>value = [0, 0, 9, 0, 2, 1, 0, 2, 28, 2]<br/>class = Star Wars>, fillcolor="#e539c08a"] ;
91 -> 92 ;
93 [label=<Dark Bluish Gray &le; 0.765<br/>gini = 0.486<br/>samples = 40<br/>value = [0, 0, 5, 0, 2, 1, 0, 2, 28, 2]<br/>class = Star Wars>, fillcolor="#e539c0a8"] ;
92 -> 93 ;
94 [label=<Black &le; 0.065<br/>gini = 0.403<br/>samples = 37<br/>value = [0, 0, 5, 0, 2, 0, 0, 2, 28, 0]<br/>class = Star Wars>, fillcolor="#e539c0b7"] ;
93 -> 94 ;
95 [label=<gini = 0.0<br/>samples = 19<br/>value = [0, 0, 0, 0, 0, 0, 0, 0, 19, 0]<br/>class = Star Wars>, fillcolor="#e539c0ff"] ;
94 -> 95 ;
96 [label=<Black &le; 0.302<br/>gini = 0.648<br/>samples = 18<br/>value = [0, 0, 5, 0, 2, 0, 0, 2, 9, 0]<br/>class = Star Wars>, fillcolor="#e539c04e"] ;
94 -> 96 ;
97 [label=<Dark Tan &le; 0.027<br/>gini = 0.58<br/>samples = 10<br/>value = [0, 0, 5, 0, 1, 0, 0, 0, 4, 0]<br/>class = City>, fillcolor="#7be5392a"] ;
96 -> 97 ;
98 [label=<Trans-Neon Orange &le; 0.079<br/>gini = 0.531<br/>samples = 8<br/>value = [0, 0, 5, 0, 1, 0, 0, 0, 2, 0]<br/>class = City>, fillcolor="#7be53980"] ;
97 -> 98 ;
99 [label=<Dark Orange &le; 0.034<br/>gini = 0.408<br/>samples = 7<br/>value = [0, 0, 5, 0, 0, 0, 0, 0, 2, 0]<br/>class = City>, fillcolor="#7be53999"] ;
98 -> 99 ;
100 [label=<Blue &le; 0.068<br/>gini = 0.278<br/>samples = 6<br/>value = [0, 0, 5, 0, 0, 0, 0, 0, 1, 0]<br/>class = City>, fillcolor="#7be539cc"] ;
99 -> 100 ;
101 [label=<gini = 0.0<br/>samples = 5<br/>value = [0, 0, 5, 0, 0, 0, 0, 0, 0, 0]<br/>class = City>, fillcolor="#7be539ff"] ;
100 -> 101 ;
102 [label=<gini = 0.0<br/>samples = 1<br/>value = [0, 0, 0, 0, 0, 0, 0, 0, 1, 0]<br/>class = Star Wars>, fillcolor="#e539c0ff"] ;
100 -> 102 ;
103 [label=<gini = 0.0<br/>samples = 1<br/>value = [0, 0, 0, 0, 0, 0, 0, 0, 1, 0]<br/>class = Star Wars>, fillcolor="#e539c0ff"] ;
99 -> 103 ;
104 [label=<gini = 0.0<br/>samples = 1<br/>value = [0, 0, 0, 0, 1, 0, 0, 0, 0, 0]<br/>class = Creator>, fillcolor="#39e5c5ff"] ;
98 -> 104 ;
105 [label=<gini = 0.0<br/>samples = 2<br/>value = [0, 0, 0, 0, 0, 0, 0, 0, 2, 0]<br/>class = Star Wars>, fillcolor="#e539c0ff"] ;
97 -> 105 ;
106 [label=<Dark Bluish Gray &le; 0.14<br/>gini = 0.531<br/>samples = 8<br/>value = [0, 0, 0, 0, 1, 0, 0, 2, 5, 0]<br/>class = Star Wars>, fillcolor="#e539c080"] ;
96 -> 106 ;
107 [label=<Trans-Red &le; 0.06<br/>gini = 0.444<br/>samples = 3<br/>value = [0, 0, 0, 0, 1, 0, 0, 2, 0, 0]<br/>class = Ninjago>, fillcolor="#a339e57f"] ;
106 -> 107 ;
108 [label=<gini = 0.0<br/>samples = 2<br/>value = [0, 0, 0, 0, 0, 0, 0, 2, 0, 0]<br/>class = Ninjago>, fillcolor="#a339e5ff"] ;
107 -> 108 ;
109 [label=<gini = 0.0<br/>samples = 1<br/>value = [0, 0, 0, 0, 1, 0, 0, 0, 0, 0]<br/>class = Creator>, fillcolor="#39e5c5ff"] ;
107 -> 109 ;
110 [label=<gini = 0.0<br/>samples = 5<br/>value = [0, 0, 0, 0, 0, 0, 0, 0, 5, 0]<br/>class = Star Wars>, fillcolor="#e539c0ff"] ;
106 -> 110 ;
111 [label=<gini = 0.444<br/>samples = 3<br/>value = [0, 0, 0, 0, 0, 1, 0, 0, 0, 2]<br/>class = Technic>, fillcolor="#e539587f"] ;
93 -> 111 ;
112 [label=<gini = 0.0<br/>samples = 4<br/>value = [0, 0, 4, 0, 0, 0, 0, 0, 0, 0]<br/>class = City>, fillcolor="#7be539ff"] ;
92 -> 112 ;
113 [label=<Pearl Gold &le; 0.007<br/>gini = 0.824<br/>samples = 34<br/>value = [1, 0, 4, 3, 10, 0, 1, 5, 6, 4]<br/>class = Creator>, fillcolor="#39e5c524"] ;
91 -> 113 ;
114 [label=<Trans-Red &le; 0.044<br/>gini = 0.81<br/>samples = 31<br/>value = [1, 0, 4, 3, 10, 0, 1, 2, 6, 4]<br/>class = Creator>, fillcolor="#39e5c529"] ;
113 -> 114 ;
115 [label=<Blue &le; 0.037<br/>gini = 0.801<br/>samples = 28<br/>value = [1, 0, 4, 3, 10, 0, 1, 2, 3, 4]<br/>class = Creator>, fillcolor="#39e5c540"] ;
114 -> 115 ;
116 [label=<Trans-Clear &le; 0.004<br/>gini = 0.709<br/>samples = 19<br/>value = [1, 0, 4, 1, 9, 0, 1, 1, 2, 0]<br/>class = Creator>, fillcolor="#39e5c555"] ;
115 -> 116 ;
117 [label=<Trans-Light Blue &le; 0.012<br/>gini = 0.82<br/>samples = 10<br/>value = [1, 0, 3, 1, 1, 0, 1, 1, 2, 0]<br/>class = City>, fillcolor="#7be53920"] ;
116 -> 117 ;
118 [label=<Tan &le; 0.006<br/>gini = 0.781<br/>samples = 8<br/>value = [1, 0, 3, 1, 1, 0, 1, 1, 0, 0]<br/>class = City>, fillcolor="#7be53949"] ;
117 -> 118 ;
119 [label=<Black &le; 0.213<br/>gini = 0.375<br/>samples = 4<br/>value = [0, 0, 3, 0, 1, 0, 0, 0, 0, 0]<br/>class = City>, fillcolor="#7be539aa"] ;
118 -> 119 ;
120 [label=<gini = 0.0<br/>samples = 1<br/>value = [0, 0, 0, 0, 1, 0, 0, 0, 0, 0]<br/>class = Creator>, fillcolor="#39e5c5ff"] ;
119 -> 120 ;
121 [label=<gini = 0.0<br/>samples = 3<br/>value = [0, 0, 3, 0, 0, 0, 0, 0, 0, 0]<br/>class = City>, fillcolor="#7be539ff"] ;
119 -> 121 ;
122 [label=<Light Bluish Gray &le; 0.053<br/>gini = 0.75<br/>samples = 4<br/>value = [1, 0, 0, 1, 0, 0, 1, 1, 0, 0]<br/>class = Airport>, fillcolor="#e5813900"] ;
118 -> 122 ;
123 [label=<gini = 0.0<br/>samples = 1<br/>value = [0, 0, 0, 0, 0, 0, 1, 0, 0, 0]<br/>class = Friends>, fillcolor="#3c39e5ff"] ;
122 -> 123 ;
124 [label=<Blue &le; 0.015<br/>gini = 0.667<br/>samples = 3<br/>value = [1, 0, 0, 1, 0, 0, 0, 1, 0, 0]<br/>class = Airport>, fillcolor="#e5813900"] ;
122 -> 124 ;
125 [label=<gini = 0.0<br/>samples = 1<br/>value = [1, 0, 0, 0, 0, 0, 0, 0, 0, 0]<br/>class = Airport>, fillcolor="#e58139ff"] ;
124 -> 125 ;
126 [label=<Dark Tan &le; 0.003<br/>gini = 0.5<br/>samples = 2<br/>value = [0, 0, 0, 1, 0, 0, 0, 1, 0, 0]<br/>class = Construction>, fillcolor="#39e55e00"] ;
124 -> 126 ;
127 [label=<gini = 0.0<br/>samples = 1<br/>value = [0, 0, 0, 1, 0, 0, 0, 0, 0, 0]<br/>class = Construction>, fillcolor="#39e55eff"] ;
126 -> 127 ;
128 [label=<gini = 0.0<br/>samples = 1<br/>value = [0, 0, 0, 0, 0, 0, 0, 1, 0, 0]<br/>class = Ninjago>, fillcolor="#a339e5ff"] ;
126 -> 128 ;
129 [label=<gini = 0.0<br/>samples = 2<br/>value = [0, 0, 0, 0, 0, 0, 0, 0, 2, 0]<br/>class = Star Wars>, fillcolor="#e539c0ff"] ;
117 -> 129 ;
130 [label=<Flat Silver &le; 0.037<br/>gini = 0.198<br/>samples = 9<br/>value = [0, 0, 1, 0, 8, 0, 0, 0, 0, 0]<br/>class = Creator>, fillcolor="#39e5c5df"] ;
116 -> 130 ;
131 [label=<gini = 0.0<br/>samples = 8<br/>value = [0, 0, 0, 0, 8, 0, 0, 0, 0, 0]<br/>class = Creator>, fillcolor="#39e5c5ff"] ;
130 -> 131 ;
132 [label=<gini = 0.0<br/>samples = 1<br/>value = [0, 0, 1, 0, 0, 0, 0, 0, 0, 0]<br/>class = City>, fillcolor="#7be539ff"] ;
130 -> 132 ;
133 [label=<Red &le; 0.116<br/>gini = 0.716<br/>samples = 9<br/>value = [0, 0, 0, 2, 1, 0, 0, 1, 1, 4]<br/>class = Technic>, fillcolor="#e5395849"] ;
115 -> 133 ;
134 [label=<Blue &le; 0.068<br/>gini = 0.612<br/>samples = 7<br/>value = [0, 0, 0, 0, 1, 0, 0, 1, 1, 4]<br/>class = Technic>, fillcolor="#e539587f"] ;
133 -> 134 ;
135 [label=<gini = 0.0<br/>samples = 4<br/>value = [0, 0, 0, 0, 0, 0, 0, 0, 0, 4]<br/>class = Technic>, fillcolor="#e53958ff"] ;
134 -> 135 ;
136 [label=<Light Bluish Gray &le; 0.184<br/>gini = 0.667<br/>samples = 3<br/>value = [0, 0, 0, 0, 1, 0, 0, 1, 1, 0]<br/>class = Creator>, fillcolor="#39e5c500"] ;
134 -> 136 ;
137 [label=<gini = 0.0<br/>samples = 1<br/>value = [0, 0, 0, 0, 0, 0, 0, 1, 0, 0]<br/>class = Ninjago>, fillcolor="#a339e5ff"] ;
136 -> 137 ;
138 [label=<Red &le; 0.023<br/>gini = 0.5<br/>samples = 2<br/>value = [0, 0, 0, 0, 1, 0, 0, 0, 1, 0]<br/>class = Creator>, fillcolor="#39e5c500"] ;
136 -> 138 ;
139 [label=<gini = 0.0<br/>samples = 1<br/>value = [0, 0, 0, 0, 1, 0, 0, 0, 0, 0]<br/>class = Creator>, fillcolor="#39e5c5ff"] ;
138 -> 139 ;
140 [label=<gini = 0.0<br/>samples = 1<br/>value = [0, 0, 0, 0, 0, 0, 0, 0, 1, 0]<br/>class = Star Wars>, fillcolor="#e539c0ff"] ;
138 -> 140 ;
141 [label=<gini = 0.0<br/>samples = 2<br/>value = [0, 0, 0, 2, 0, 0, 0, 0, 0, 0]<br/>class = Construction>, fillcolor="#39e55eff"] ;
133 -> 141 ;
142 [label=<gini = 0.0<br/>samples = 3<br/>value = [0, 0, 0, 0, 0, 0, 0, 0, 3, 0]<br/>class = Star Wars>, fillcolor="#e539c0ff"] ;
114 -> 142 ;
143 [label=<gini = 0.0<br/>samples = 3<br/>value = [0, 0, 0, 0, 0, 0, 0, 3, 0, 0]<br/>class = Ninjago>, fillcolor="#a339e5ff"] ;
113 -> 143 ;
144 [label=<Medium Blue &le; 0.074<br/>gini = 0.577<br/>samples = 49<br/>value = [2, 0, 2, 4, 2, 3, 0, 1, 4, 31]<br/>class = Technic>, fillcolor="#e5395899"] ;
8 -> 144 ;
145 [label=<Trans-Clear &le; 0.063<br/>gini = 0.505<br/>samples = 45<br/>value = [2, 0, 2, 4, 0, 1, 0, 1, 4, 31]<br/>class = Technic>, fillcolor="#e53958a8"] ;
144 -> 145 ;
146 [label=<Light Bluish Gray &le; 0.311<br/>gini = 0.44<br/>samples = 42<br/>value = [1, 0, 2, 2, 0, 1, 0, 1, 4, 31]<br/>class = Technic>, fillcolor="#e53958b5"] ;
145 -> 146 ;
147 [label=<Trans-Dark Blue &le; 0.011<br/>gini = 0.359<br/>samples = 39<br/>value = [1, 0, 1, 1, 0, 1, 0, 1, 3, 31]<br/>class = Technic>, fillcolor="#e53958c6"] ;
146 -> 147 ;
148 [label=<Pearl Dark Gray &le; 0.008<br/>gini = 0.289<br/>samples = 37<br/>value = [1, 0, 1, 1, 0, 0, 0, 0, 3, 31]<br/>class = Technic>, fillcolor="#e53958d2"] ;
147 -> 148 ;
149 [label=<Trans-Yellow &le; 0.001<br/>gini = 0.218<br/>samples = 34<br/>value = [1, 0, 1, 1, 0, 0, 0, 0, 1, 30]<br/>class = Technic>, fillcolor="#e53958e0"] ;
148 -> 149 ;
150 [label=<Dark Blue &le; 0.088<br/>gini = 0.171<br/>samples = 33<br/>value = [1, 0, 1, 0, 0, 0, 0, 0, 1, 30]<br/>class = Technic>, fillcolor="#e53958e7"] ;
149 -> 150 ;
151 [label=<Black &le; 0.479<br/>gini = 0.119<br/>samples = 32<br/>value = [1, 0, 1, 0, 0, 0, 0, 0, 0, 30]<br/>class = Technic>, fillcolor="#e53958ef"] ;
150 -> 151 ;
152 [label=<White &le; 0.034<br/>gini = 0.062<br/>samples = 31<br/>value = [1, 0, 0, 0, 0, 0, 0, 0, 0, 30]<br/>class = Technic>, fillcolor="#e53958f6"] ;
151 -> 152 ;
153 [label=<gini = 0.0<br/>samples = 29<br/>value = [0, 0, 0, 0, 0, 0, 0, 0, 0, 29]<br/>class = Technic>, fillcolor="#e53958ff"] ;
152 -> 153 ;
154 [label=<Light Bluish Gray &le; 0.207<br/>gini = 0.5<br/>samples = 2<br/>value = [1, 0, 0, 0, 0, 0, 0, 0, 0, 1]<br/>class = Airport>, fillcolor="#e5813900"] ;
152 -> 154 ;
155 [label=<gini = 0.0<br/>samples = 1<br/>value = [1, 0, 0, 0, 0, 0, 0, 0, 0, 0]<br/>class = Airport>, fillcolor="#e58139ff"] ;
154 -> 155 ;
156 [label=<gini = 0.0<br/>samples = 1<br/>value = [0, 0, 0, 0, 0, 0, 0, 0, 0, 1]<br/>class = Technic>, fillcolor="#e53958ff"] ;
154 -> 156 ;
157 [label=<gini = 0.0<br/>samples = 1<br/>value = [0, 0, 1, 0, 0, 0, 0, 0, 0, 0]<br/>class = City>, fillcolor="#7be539ff"] ;
151 -> 157 ;
158 [label=<gini = 0.0<br/>samples = 1<br/>value = [0, 0, 0, 0, 0, 0, 0, 0, 1, 0]<br/>class = Star Wars>, fillcolor="#e539c0ff"] ;
150 -> 158 ;
159 [label=<gini = 0.0<br/>samples = 1<br/>value = [0, 0, 0, 1, 0, 0, 0, 0, 0, 0]<br/>class = Construction>, fillcolor="#39e55eff"] ;
149 -> 159 ;
160 [label=<Tan &le; 0.038<br/>gini = 0.444<br/>samples = 3<br/>value = [0, 0, 0, 0, 0, 0, 0, 0, 2, 1]<br/>class = Star Wars>, fillcolor="#e539c07f"] ;
148 -> 160 ;
161 [label=<gini = 0.0<br/>samples = 2<br/>value = [0, 0, 0, 0, 0, 0, 0, 0, 2, 0]<br/>class = Star Wars>, fillcolor="#e539c0ff"] ;
160 -> 161 ;
162 [label=<gini = 0.0<br/>samples = 1<br/>value = [0, 0, 0, 0, 0, 0, 0, 0, 0, 1]<br/>class = Technic>, fillcolor="#e53958ff"] ;
160 -> 162 ;
163 [label=<Blue &le; 0.324<br/>gini = 0.5<br/>samples = 2<br/>value = [0, 0, 0, 0, 0, 1, 0, 1, 0, 0]<br/>class = Duplo>, fillcolor="#399de500"] ;
147 -> 163 ;
164 [label=<gini = 0.0<br/>samples = 1<br/>value = [0, 0, 0, 0, 0, 1, 0, 0, 0, 0]<br/>class = Duplo>, fillcolor="#399de5ff"] ;
163 -> 164 ;
165 [label=<gini = 0.0<br/>samples = 1<br/>value = [0, 0, 0, 0, 0, 0, 0, 1, 0, 0]<br/>class = Ninjago>, fillcolor="#a339e5ff"] ;
163 -> 165 ;
166 [label=<Tan &le; 0.017<br/>gini = 0.667<br/>samples = 3<br/>value = [0, 0, 1, 1, 0, 0, 0, 0, 1, 0]<br/>class = City>, fillcolor="#7be53900"] ;
146 -> 166 ;
167 [label=<Blue &le; 0.409<br/>gini = 0.5<br/>samples = 2<br/>value = [0, 0, 1, 0, 0, 0, 0, 0, 1, 0]<br/>class = City>, fillcolor="#7be53900"] ;
166 -> 167 ;
168 [label=<gini = 0.0<br/>samples = 1<br/>value = [0, 0, 0, 0, 0, 0, 0, 0, 1, 0]<br/>class = Star Wars>, fillcolor="#e539c0ff"] ;
167 -> 168 ;
169 [label=<gini = 0.0<br/>samples = 1<br/>value = [0, 0, 1, 0, 0, 0, 0, 0, 0, 0]<br/>class = City>, fillcolor="#7be539ff"] ;
167 -> 169 ;
170 [label=<gini = 0.0<br/>samples = 1<br/>value = [0, 0, 0, 1, 0, 0, 0, 0, 0, 0]<br/>class = Construction>, fillcolor="#39e55eff"] ;
166 -> 170 ;
171 [label=<Red &le; 0.268<br/>gini = 0.444<br/>samples = 3<br/>value = [1, 0, 0, 2, 0, 0, 0, 0, 0, 0]<br/>class = Construction>, fillcolor="#39e55e7f"] ;
145 -> 171 ;
172 [label=<gini = 0.0<br/>samples = 2<br/>value = [0, 0, 0, 2, 0, 0, 0, 0, 0, 0]<br/>class = Construction>, fillcolor="#39e55eff"] ;
171 -> 172 ;
173 [label=<gini = 0.0<br/>samples = 1<br/>value = [1, 0, 0, 0, 0, 0, 0, 0, 0, 0]<br/>class = Airport>, fillcolor="#e58139ff"] ;
171 -> 173 ;
174 [label=<Trans-Neon Orange &le; 0.093<br/>gini = 0.5<br/>samples = 4<br/>value = [0, 0, 0, 0, 2, 2, 0, 0, 0, 0]<br/>class = Creator>, fillcolor="#39e5c500"] ;
144 -> 174 ;
175 [label=<Blue &le; 0.381<br/>gini = 0.444<br/>samples = 3<br/>value = [0, 0, 0, 0, 1, 2, 0, 0, 0, 0]<br/>class = Duplo>, fillcolor="#399de57f"] ;
174 -> 175 ;
176 [label=<gini = 0.0<br/>samples = 2<br/>value = [0, 0, 0, 0, 0, 2, 0, 0, 0, 0]<br/>class = Duplo>, fillcolor="#399de5ff"] ;
175 -> 176 ;
177 [label=<gini = 0.0<br/>samples = 1<br/>value = [0, 0, 0, 0, 1, 0, 0, 0, 0, 0]<br/>class = Creator>, fillcolor="#39e5c5ff"] ;
175 -> 177 ;
178 [label=<gini = 0.0<br/>samples = 1<br/>value = [0, 0, 0, 0, 1, 0, 0, 0, 0, 0]<br/>class = Creator>, fillcolor="#39e5c5ff"] ;
174 -> 178 ;
179 [label=<Dark Pink &le; 0.032<br/>gini = 0.823<br/>samples = 204<br/>value = [13, 5, 46, 2, 60, 18, 26, 5, 16, 13]<br/>class = Creator>, fillcolor="#39e5c517"] ;
7 -> 179 ;
180 [label=<Bright Green &le; 0.039<br/>gini = 0.811<br/>samples = 190<br/>value = [13, 5, 46, 2, 60, 15, 15, 5, 16, 13]<br/>class = Creator>, fillcolor="#39e5c519"] ;
179 -> 180 ;
181 [label=<Tan &le; 0.062<br/>gini = 0.794<br/>samples = 177<br/>value = [13, 5, 46, 2, 59, 5, 13, 5, 16, 13]<br/>class = Creator>, fillcolor="#39e5c519"] ;
180 -> 181 ;
182 [label=<Medium Blue &le; 0.036<br/>gini = 0.816<br/>samples = 158<br/>value = [13, 5, 44, 2, 43, 5, 13, 5, 15, 13]<br/>class = City>, fillcolor="#7be53902"] ;
181 -> 182 ;
183 [label=<Tan &le; 0.008<br/>gini = 0.804<br/>samples = 151<br/>value = [13, 5, 44, 2, 42, 0, 12, 5, 15, 13]<br/>class = City>, fillcolor="#7be53905"] ;
182 -> 183 ;
184 [label=<White &le; 0.195<br/>gini = 0.777<br/>samples = 136<br/>value = [9, 5, 43, 1, 42, 0, 12, 2, 14, 8]<br/>class = City>, fillcolor="#7be53903"] ;
183 -> 184 ;
185 [label=<Medium Dark Flesh &le; 0.001<br/>gini = 0.651<br/>samples = 44<br/>value = [2, 2, 11, 1, 23, 0, 4, 0, 1, 0]<br/>class = Creator>, fillcolor="#39e5c55d"] ;
184 -> 185 ;
186 [label=<Light Bluish Gray &le; 0.118<br/>gini = 0.588<br/>samples = 40<br/>value = [0, 2, 11, 1, 23, 0, 2, 0, 1, 0]<br/>class = Creator>, fillcolor="#39e5c56a"] ;
185 -> 186 ;
187 [label=<Dark Bluish Gray &le; 0.106<br/>gini = 0.673<br/>samples = 18<br/>value = [0, 1, 8, 0, 6, 0, 2, 0, 1, 0]<br/>class = City>, fillcolor="#7be5392a"] ;
186 -> 187 ;
188 [label=<White &le; 0.164<br/>gini = 0.722<br/>samples = 12<br/>value = [0, 1, 3, 0, 5, 0, 2, 0, 1, 0]<br/>class = Creator>, fillcolor="#39e5c539"] ;
187 -> 188 ;
189 [label=<Blue &le; 0.029<br/>gini = 0.68<br/>samples = 10<br/>value = [0, 1, 1, 0, 5, 0, 2, 0, 1, 0]<br/>class = Creator>, fillcolor="#39e5c560"] ;
188 -> 189 ;
190 [label=<Reddish Brown &le; 0.117<br/>gini = 0.531<br/>samples = 8<br/>value = [0, 0, 0, 0, 5, 0, 2, 0, 1, 0]<br/>class = Creator>, fillcolor="#39e5c580"] ;
189 -> 190 ;
191 [label=<Bright Green &le; 0.019<br/>gini = 0.278<br/>samples = 6<br/>value = [0, 0, 0, 0, 5, 0, 1, 0, 0, 0]<br/>class = Creator>, fillcolor="#39e5c5cc"] ;
190 -> 191 ;
192 [label=<gini = 0.0<br/>samples = 5<br/>value = [0, 0, 0, 0, 5, 0, 0, 0, 0, 0]<br/>class = Creator>, fillcolor="#39e5c5ff"] ;
191 -> 192 ;
193 [label=<gini = 0.0<br/>samples = 1<br/>value = [0, 0, 0, 0, 0, 0, 1, 0, 0, 0]<br/>class = Friends>, fillcolor="#3c39e5ff"] ;
191 -> 193 ;
194 [label=<White &le; 0.076<br/>gini = 0.5<br/>samples = 2<br/>value = [0, 0, 0, 0, 0, 0, 1, 0, 1, 0]<br/>class = Friends>, fillcolor="#3c39e500"] ;
190 -> 194 ;
195 [label=<gini = 0.0<br/>samples = 1<br/>value = [0, 0, 0, 0, 0, 0, 1, 0, 0, 0]<br/>class = Friends>, fillcolor="#3c39e5ff"] ;
194 -> 195 ;
196 [label=<gini = 0.0<br/>samples = 1<br/>value = [0, 0, 0, 0, 0, 0, 0, 0, 1, 0]<br/>class = Star Wars>, fillcolor="#e539c0ff"] ;
194 -> 196 ;
197 [label=<Blue &le; 0.045<br/>gini = 0.5<br/>samples = 2<br/>value = [0, 1, 1, 0, 0, 0, 0, 0, 0, 0]<br/>class = Basic Set>, fillcolor="#e2e53900"] ;
189 -> 197 ;
198 [label=<gini = 0.0<br/>samples = 1<br/>value = [0, 0, 1, 0, 0, 0, 0, 0, 0, 0]<br/>class = City>, fillcolor="#7be539ff"] ;
197 -> 198 ;
199 [label=<gini = 0.0<br/>samples = 1<br/>value = [0, 1, 0, 0, 0, 0, 0, 0, 0, 0]<br/>class = Basic Set>, fillcolor="#e2e539ff"] ;
197 -> 199 ;
200 [label=<gini = 0.0<br/>samples = 2<br/>value = [0, 0, 2, 0, 0, 0, 0, 0, 0, 0]<br/>class = City>, fillcolor="#7be539ff"] ;
188 -> 200 ;
201 [label=<White &le; 0.139<br/>gini = 0.278<br/>samples = 6<br/>value = [0, 0, 5, 0, 1, 0, 0, 0, 0, 0]<br/>class = City>, fillcolor="#7be539cc"] ;
187 -> 201 ;
202 [label=<gini = 0.0<br/>samples = 5<br/>value = [0, 0, 5, 0, 0, 0, 0, 0, 0, 0]<br/>class = City>, fillcolor="#7be539ff"] ;
201 -> 202 ;
203 [label=<gini = 0.0<br/>samples = 1<br/>value = [0, 0, 0, 0, 1, 0, 0, 0, 0, 0]<br/>class = Creator>, fillcolor="#39e5c5ff"] ;
201 -> 203 ;
204 [label=<Black &le; 0.268<br/>gini = 0.38<br/>samples = 22<br/>value = [0, 1, 3, 1, 17, 0, 0, 0, 0, 0]<br/>class = Creator>, fillcolor="#39e5c5bc"] ;
186 -> 204 ;
205 [label=<Trans-Dark Blue &le; 0.025<br/>gini = 0.27<br/>samples = 20<br/>value = [0, 1, 1, 1, 17, 0, 0, 0, 0, 0]<br/>class = Creator>, fillcolor="#39e5c5d7"] ;
204 -> 205 ;
206 [label=<[No Color] &le; 0.001<br/>gini = 0.194<br/>samples = 19<br/>value = [0, 1, 0, 1, 17, 0, 0, 0, 0, 0]<br/>class = Creator>, fillcolor="#39e5c5e3"] ;
205 -> 206 ;
207 [label=<Trans-Red &le; 0.046<br/>gini = 0.105<br/>samples = 18<br/>value = [0, 1, 0, 0, 17, 0, 0, 0, 0, 0]<br/>class = Creator>, fillcolor="#39e5c5f0"] ;
206 -> 207 ;
208 [label=<gini = 0.0<br/>samples = 17<br/>value = [0, 0, 0, 0, 17, 0, 0, 0, 0, 0]<br/>class = Creator>, fillcolor="#39e5c5ff"] ;
207 -> 208 ;
209 [label=<gini = 0.0<br/>samples = 1<br/>value = [0, 1, 0, 0, 0, 0, 0, 0, 0, 0]<br/>class = Basic Set>, fillcolor="#e2e539ff"] ;
207 -> 209 ;
210 [label=<gini = 0.0<br/>samples = 1<br/>value = [0, 0, 0, 1, 0, 0, 0, 0, 0, 0]<br/>class = Construction>, fillcolor="#39e55eff"] ;
206 -> 210 ;
211 [label=<gini = 0.0<br/>samples = 1<br/>value = [0, 0, 1, 0, 0, 0, 0, 0, 0, 0]<br/>class = City>, fillcolor="#7be539ff"] ;
205 -> 211 ;
212 [label=<gini = 0.0<br/>samples = 2<br/>value = [0, 0, 2, 0, 0, 0, 0, 0, 0, 0]<br/>class = City>, fillcolor="#7be539ff"] ;
204 -> 212 ;
213 [label=<Trans-Green &le; 0.001<br/>gini = 0.5<br/>samples = 4<br/>value = [2, 0, 0, 0, 0, 0, 2, 0, 0, 0]<br/>class = Airport>, fillcolor="#e5813900"] ;
185 -> 213 ;
214 [label=<gini = 0.0<br/>samples = 2<br/>value = [0, 0, 0, 0, 0, 0, 2, 0, 0, 0]<br/>class = Friends>, fillcolor="#3c39e5ff"] ;
213 -> 214 ;
215 [label=<gini = 0.0<br/>samples = 2<br/>value = [2, 0, 0, 0, 0, 0, 0, 0, 0, 0]<br/>class = Airport>, fillcolor="#e58139ff"] ;
213 -> 215 ;
216 [label=<Blue &le; 0.102<br/>gini = 0.794<br/>samples = 92<br/>value = [7, 3, 32, 0, 19, 0, 8, 2, 13, 8]<br/>class = City>, fillcolor="#7be5392d"] ;
184 -> 216 ;
217 [label=<Dark Bluish Gray &le; 0.079<br/>gini = 0.819<br/>samples = 75<br/>value = [5, 2, 20, 0, 17, 0, 8, 2, 13, 8]<br/>class = City>, fillcolor="#7be5390d"] ;
216 -> 217 ;
218 [label=<Black &le; 0.438<br/>gini = 0.785<br/>samples = 62<br/>value = [2, 2, 20, 0, 16, 0, 8, 0, 6, 8]<br/>class = City>, fillcolor="#7be53916"] ;
217 -> 218 ;
219 [label=<Black &le; 0.317<br/>gini = 0.768<br/>samples = 58<br/>value = [2, 2, 20, 0, 16, 0, 8, 0, 6, 4]<br/>class = City>, fillcolor="#7be53918"] ;
218 -> 219 ;
220 [label=<White &le; 0.725<br/>gini = 0.761<br/>samples = 50<br/>value = [2, 2, 20, 0, 10, 0, 7, 0, 5, 4]<br/>class = City>, fillcolor="#7be53940"] ;
219 -> 220 ;
221 [label=<Black &le; 0.084<br/>gini = 0.7<br/>samples = 42<br/>value = [2, 2, 20, 0, 9, 0, 6, 0, 2, 1]<br/>class = City>, fillcolor="#7be53955"] ;
220 -> 221 ;
222 [label=<Red &le; 0.287<br/>gini = 0.796<br/>samples = 26<br/>value = [2, 2, 8, 0, 5, 0, 6, 0, 2, 1]<br/>class = City>, fillcolor="#7be5391a"] ;
221 -> 222 ;
223 [label=<White &le; 0.295<br/>gini = 0.742<br/>samples = 19<br/>value = [1, 1, 7, 0, 1, 0, 6, 0, 2, 1]<br/>class = City>, fillcolor="#7be53914"] ;
222 -> 223 ;
224 [label=<Dark Bluish Gray &le; 0.006<br/>gini = 0.32<br/>samples = 5<br/>value = [0, 1, 0, 0, 0, 0, 4, 0, 0, 0]<br/>class = Friends>, fillcolor="#3c39e5bf"] ;
223 -> 224 ;
225 [label=<gini = 0.0<br/>samples = 4<br/>value = [0, 0, 0, 0, 0, 0, 4, 0, 0, 0]<br/>class = Friends>, fillcolor="#3c39e5ff"] ;
224 -> 225 ;
226 [label=<gini = 0.0<br/>samples = 1<br/>value = [0, 1, 0, 0, 0, 0, 0, 0, 0, 0]<br/>class = Basic Set>, fillcolor="#e2e539ff"] ;
224 -> 226 ;
227 [label=<White &le; 0.359<br/>gini = 0.694<br/>samples = 14<br/>value = [1, 0, 7, 0, 1, 0, 2, 0, 2, 1]<br/>class = City>, fillcolor="#7be5396a"] ;
223 -> 227 ;
228 [label=<Red &le; 0.014<br/>gini = 0.667<br/>samples = 3<br/>value = [1, 0, 0, 0, 0, 0, 0, 0, 1, 1]<br/>class = Airport>, fillcolor="#e5813900"] ;
227 -> 228 ;
229 [label=<gini = 0.0<br/>samples = 1<br/>value = [0, 0, 0, 0, 0, 0, 0, 0, 0, 1]<br/>class = Technic>, fillcolor="#e53958ff"] ;
228 -> 229 ;
230 [label=<Trans-Black &le; 0.078<br/>gini = 0.5<br/>samples = 2<br/>value = [1, 0, 0, 0, 0, 0, 0, 0, 1, 0]<br/>class = Airport>, fillcolor="#e5813900"] ;
228 -> 230 ;
231 [label=<gini = 0.0<br/>samples = 1<br/>value = [0, 0, 0, 0, 0, 0, 0, 0, 1, 0]<br/>class = Star Wars>, fillcolor="#e539c0ff"] ;
230 -> 231 ;
232 [label=<gini = 0.0<br/>samples = 1<br/>value = [1, 0, 0, 0, 0, 0, 0, 0, 0, 0]<br/>class = Airport>, fillcolor="#e58139ff"] ;
230 -> 232 ;
233 [label=<Lime &le; 0.059<br/>gini = 0.545<br/>samples = 11<br/>value = [0, 0, 7, 0, 1, 0, 2, 0, 1, 0]<br/>class = City>, fillcolor="#7be5398e"] ;
227 -> 233 ;
234 [label=<Flat Silver &le; 0.011<br/>gini = 0.37<br/>samples = 9<br/>value = [0, 0, 7, 0, 1, 0, 1, 0, 0, 0]<br/>class = City>, fillcolor="#7be539bf"] ;
233 -> 234 ;
235 [label=<Light Bluish Gray &le; 0.212<br/>gini = 0.219<br/>samples = 8<br/>value = [0, 0, 7, 0, 0, 0, 1, 0, 0, 0]<br/>class = City>, fillcolor="#7be539db"] ;
234 -> 235 ;
236 [label=<gini = 0.0<br/>samples = 7<br/>value = [0, 0, 7, 0, 0, 0, 0, 0, 0, 0]<br/>class = City>, fillcolor="#7be539ff"] ;
235 -> 236 ;
237 [label=<gini = 0.0<br/>samples = 1<br/>value = [0, 0, 0, 0, 0, 0, 1, 0, 0, 0]<br/>class = Friends>, fillcolor="#3c39e5ff"] ;
235 -> 237 ;
238 [label=<gini = 0.0<br/>samples = 1<br/>value = [0, 0, 0, 0, 1, 0, 0, 0, 0, 0]<br/>class = Creator>, fillcolor="#39e5c5ff"] ;
234 -> 238 ;
239 [label=<White &le; 0.452<br/>gini = 0.5<br/>samples = 2<br/>value = [0, 0, 0, 0, 0, 0, 1, 0, 1, 0]<br/>class = Friends>, fillcolor="#3c39e500"] ;
233 -> 239 ;
240 [label=<gini = 0.0<br/>samples = 1<br/>value = [0, 0, 0, 0, 0, 0, 1, 0, 0, 0]<br/>class = Friends>, fillcolor="#3c39e5ff"] ;
239 -> 240 ;
241 [label=<gini = 0.0<br/>samples = 1<br/>value = [0, 0, 0, 0, 0, 0, 0, 0, 1, 0]<br/>class = Star Wars>, fillcolor="#e539c0ff"] ;
239 -> 241 ;
242 [label=<Light Bluish Gray &le; 0.354<br/>gini = 0.612<br/>samples = 7<br/>value = [1, 1, 1, 0, 4, 0, 0, 0, 0, 0]<br/>class = Creator>, fillcolor="#39e5c57f"] ;
222 -> 242 ;
243 [label=<White &le; 0.438<br/>gini = 0.5<br/>samples = 6<br/>value = [1, 1, 0, 0, 4, 0, 0, 0, 0, 0]<br/>class = Creator>, fillcolor="#39e5c599"] ;
242 -> 243 ;
244 [label=<Black &le; 0.078<br/>gini = 0.32<br/>samples = 5<br/>value = [1, 0, 0, 0, 4, 0, 0, 0, 0, 0]<br/>class = Creator>, fillcolor="#39e5c5bf"] ;
243 -> 244 ;
245 [label=<gini = 0.0<br/>samples = 4<br/>value = [0, 0, 0, 0, 4, 0, 0, 0, 0, 0]<br/>class = Creator>, fillcolor="#39e5c5ff"] ;
244 -> 245 ;
246 [label=<gini = 0.0<br/>samples = 1<br/>value = [1, 0, 0, 0, 0, 0, 0, 0, 0, 0]<br/>class = Airport>, fillcolor="#e58139ff"] ;
244 -> 246 ;
247 [label=<gini = 0.0<br/>samples = 1<br/>value = [0, 1, 0, 0, 0, 0, 0, 0, 0, 0]<br/>class = Basic Set>, fillcolor="#e2e539ff"] ;
243 -> 247 ;
248 [label=<gini = 0.0<br/>samples = 1<br/>value = [0, 0, 1, 0, 0, 0, 0, 0, 0, 0]<br/>class = City>, fillcolor="#7be539ff"] ;
242 -> 248 ;
249 [label=<White &le; 0.211<br/>gini = 0.375<br/>samples = 16<br/>value = [0, 0, 12, 0, 4, 0, 0, 0, 0, 0]<br/>class = City>, fillcolor="#7be539aa"] ;
221 -> 249 ;
250 [label=<gini = 0.0<br/>samples = 1<br/>value = [0, 0, 0, 0, 1, 0, 0, 0, 0, 0]<br/>class = Creator>, fillcolor="#39e5c5ff"] ;
249 -> 250 ;
251 [label=<Flat Silver &le; 0.009<br/>gini = 0.32<br/>samples = 15<br/>value = [0, 0, 12, 0, 3, 0, 0, 0, 0, 0]<br/>class = City>, fillcolor="#7be539bf"] ;
249 -> 251 ;
252 [label=<Blue &le; 0.08<br/>gini = 0.245<br/>samples = 14<br/>value = [0, 0, 12, 0, 2, 0, 0, 0, 0, 0]<br/>class = City>, fillcolor="#7be539d4"] ;
251 -> 252 ;
253 [label=<Trans-Green &le; 0.146<br/>gini = 0.142<br/>samples = 13<br/>value = [0, 0, 12, 0, 1, 0, 0, 0, 0, 0]<br/>class = City>, fillcolor="#7be539ea"] ;
252 -> 253 ;
254 [label=<gini = 0.0<br/>samples = 12<br/>value = [0, 0, 12, 0, 0, 0, 0, 0, 0, 0]<br/>class = City>, fillcolor="#7be539ff"] ;
253 -> 254 ;
255 [label=<gini = 0.0<br/>samples = 1<br/>value = [0, 0, 0, 0, 1, 0, 0, 0, 0, 0]<br/>class = Creator>, fillcolor="#39e5c5ff"] ;
253 -> 255 ;
256 [label=<gini = 0.0<br/>samples = 1<br/>value = [0, 0, 0, 0, 1, 0, 0, 0, 0, 0]<br/>class = Creator>, fillcolor="#39e5c5ff"] ;
252 -> 256 ;
257 [label=<gini = 0.0<br/>samples = 1<br/>value = [0, 0, 0, 0, 1, 0, 0, 0, 0, 0]<br/>class = Creator>, fillcolor="#39e5c5ff"] ;
251 -> 257 ;
258 [label=<Black &le; 0.125<br/>gini = 0.688<br/>samples = 8<br/>value = [0, 0, 0, 0, 1, 0, 1, 0, 3, 3]<br/>class = Star Wars>, fillcolor="#e539c000"] ;
220 -> 258 ;
259 [label=<White &le; 0.875<br/>gini = 0.667<br/>samples = 6<br/>value = [0, 0, 0, 0, 1, 0, 1, 0, 1, 3]<br/>class = Technic>, fillcolor="#e5395866"] ;
258 -> 259 ;
260 [label=<gini = 0.0<br/>samples = 1<br/>value = [0, 0, 0, 0, 1, 0, 0, 0, 0, 0]<br/>class = Creator>, fillcolor="#39e5c5ff"] ;
259 -> 260 ;
261 [label=<gini = 0.56<br/>samples = 5<br/>value = [0, 0, 0, 0, 0, 0, 1, 0, 1, 3]<br/>class = Technic>, fillcolor="#e539587f"] ;
259 -> 261 ;
262 [label=<gini = 0.0<br/>samples = 2<br/>value = [0, 0, 0, 0, 0, 0, 0, 0, 2, 0]<br/>class = Star Wars>, fillcolor="#e539c0ff"] ;
258 -> 262 ;
263 [label=<Trans-Yellow &le; 0.091<br/>gini = 0.406<br/>samples = 8<br/>value = [0, 0, 0, 0, 6, 0, 1, 0, 1, 0]<br/>class = Creator>, fillcolor="#39e5c5b6"] ;
219 -> 263 ;
264 [label=<White &le; 0.652<br/>gini = 0.245<br/>samples = 7<br/>value = [0, 0, 0, 0, 6, 0, 0, 0, 1, 0]<br/>class = Creator>, fillcolor="#39e5c5d4"] ;
263 -> 264 ;
265 [label=<gini = 0.0<br/>samples = 5<br/>value = [0, 0, 0, 0, 5, 0, 0, 0, 0, 0]<br/>class = Creator>, fillcolor="#39e5c5ff"] ;
264 -> 265 ;
266 [label=<gini = 0.5<br/>samples = 2<br/>value = [0, 0, 0, 0, 1, 0, 0, 0, 1, 0]<br/>class = Creator>, fillcolor="#39e5c500"] ;
264 -> 266 ;
267 [label=<gini = 0.0<br/>samples = 1<br/>value = [0, 0, 0, 0, 0, 0, 1, 0, 0, 0]<br/>class = Friends>, fillcolor="#3c39e5ff"] ;
263 -> 267 ;
268 [label=<gini = 0.0<br/>samples = 4<br/>value = [0, 0, 0, 0, 0, 0, 0, 0, 0, 4]<br/>class = Technic>, fillcolor="#e53958ff"] ;
218 -> 268 ;
269 [label=<Yellow &le; 0.015<br/>gini = 0.627<br/>samples = 13<br/>value = [3, 0, 0, 0, 1, 0, 0, 2, 7, 0]<br/>class = Star Wars>, fillcolor="#e539c066"] ;
217 -> 269 ;
270 [label=<Red &le; 0.085<br/>gini = 0.219<br/>samples = 8<br/>value = [1, 0, 0, 0, 0, 0, 0, 0, 7, 0]<br/>class = Star Wars>, fillcolor="#e539c0db"] ;
269 -> 270 ;
271 [label=<gini = 0.0<br/>samples = 6<br/>value = [0, 0, 0, 0, 0, 0, 0, 0, 6, 0]<br/>class = Star Wars>, fillcolor="#e539c0ff"] ;
270 -> 271 ;
272 [label=<White &le; 0.376<br/>gini = 0.5<br/>samples = 2<br/>value = [1, 0, 0, 0, 0, 0, 0, 0, 1, 0]<br/>class = Airport>, fillcolor="#e5813900"] ;
270 -> 272 ;
273 [label=<gini = 0.0<br/>samples = 1<br/>value = [0, 0, 0, 0, 0, 0, 0, 0, 1, 0]<br/>class = Star Wars>, fillcolor="#e539c0ff"] ;
272 -> 273 ;
274 [label=<gini = 0.0<br/>samples = 1<br/>value = [1, 0, 0, 0, 0, 0, 0, 0, 0, 0]<br/>class = Airport>, fillcolor="#e58139ff"] ;
272 -> 274 ;
275 [label=<Trans-Red &le; 0.009<br/>gini = 0.64<br/>samples = 5<br/>value = [2, 0, 0, 0, 1, 0, 0, 2, 0, 0]<br/>class = Airport>, fillcolor="#e5813900"] ;
269 -> 275 ;
276 [label=<gini = 0.0<br/>samples = 2<br/>value = [2, 0, 0, 0, 0, 0, 0, 0, 0, 0]<br/>class = Airport>, fillcolor="#e58139ff"] ;
275 -> 276 ;
277 [label=<White &le; 0.262<br/>gini = 0.444<br/>samples = 3<br/>value = [0, 0, 0, 0, 1, 0, 0, 2, 0, 0]<br/>class = Ninjago>, fillcolor="#a339e57f"] ;
275 -> 277 ;
278 [label=<gini = 0.0<br/>samples = 1<br/>value = [0, 0, 0, 0, 1, 0, 0, 0, 0, 0]<br/>class = Creator>, fillcolor="#39e5c5ff"] ;
277 -> 278 ;
279 [label=<gini = 0.0<br/>samples = 2<br/>value = [0, 0, 0, 0, 0, 0, 0, 2, 0, 0]<br/>class = Ninjago>, fillcolor="#a339e5ff"] ;
277 -> 279 ;
280 [label=<Trans-Black &le; 0.006<br/>gini = 0.471<br/>samples = 17<br/>value = [2, 1, 12, 0, 2, 0, 0, 0, 0, 0]<br/>class = City>, fillcolor="#7be539aa"] ;
216 -> 280 ;
281 [label=<Bright Green &le; 0.009<br/>gini = 0.255<br/>samples = 14<br/>value = [1, 1, 12, 0, 0, 0, 0, 0, 0, 0]<br/>class = City>, fillcolor="#7be539d8"] ;
280 -> 281 ;
282 [label=<Trans-Clear &le; 0.058<br/>gini = 0.142<br/>samples = 13<br/>value = [1, 0, 12, 0, 0, 0, 0, 0, 0, 0]<br/>class = City>, fillcolor="#7be539ea"] ;
281 -> 282 ;
283 [label=<gini = 0.0<br/>samples = 11<br/>value = [0, 0, 11, 0, 0, 0, 0, 0, 0, 0]<br/>class = City>, fillcolor="#7be539ff"] ;
282 -> 283 ;
284 [label=<White &le; 0.327<br/>gini = 0.5<br/>samples = 2<br/>value = [1, 0, 1, 0, 0, 0, 0, 0, 0, 0]<br/>class = Airport>, fillcolor="#e5813900"] ;
282 -> 284 ;
285 [label=<gini = 0.0<br/>samples = 1<br/>value = [0, 0, 1, 0, 0, 0, 0, 0, 0, 0]<br/>class = City>, fillcolor="#7be539ff"] ;
284 -> 285 ;
286 [label=<gini = 0.0<br/>samples = 1<br/>value = [1, 0, 0, 0, 0, 0, 0, 0, 0, 0]<br/>class = Airport>, fillcolor="#e58139ff"] ;
284 -> 286 ;
287 [label=<gini = 0.0<br/>samples = 1<br/>value = [0, 1, 0, 0, 0, 0, 0, 0, 0, 0]<br/>class = Basic Set>, fillcolor="#e2e539ff"] ;
281 -> 287 ;
288 [label=<Red &le; 0.156<br/>gini = 0.444<br/>samples = 3<br/>value = [1, 0, 0, 0, 2, 0, 0, 0, 0, 0]<br/>class = Creator>, fillcolor="#39e5c57f"] ;
280 -> 288 ;
289 [label=<gini = 0.0<br/>samples = 2<br/>value = [0, 0, 0, 0, 2, 0, 0, 0, 0, 0]<br/>class = Creator>, fillcolor="#39e5c5ff"] ;
288 -> 289 ;
290 [label=<gini = 0.0<br/>samples = 1<br/>value = [1, 0, 0, 0, 0, 0, 0, 0, 0, 0]<br/>class = Airport>, fillcolor="#e58139ff"] ;
288 -> 290 ;
291 [label=<Blue &le; 0.093<br/>gini = 0.764<br/>samples = 15<br/>value = [4, 0, 1, 1, 0, 0, 0, 3, 1, 5]<br/>class = Technic>, fillcolor="#e5395817"] ;
183 -> 291 ;
292 [label=<Trans-Yellow &le; 0.01<br/>gini = 0.688<br/>samples = 8<br/>value = [3, 0, 0, 1, 0, 0, 0, 3, 1, 0]<br/>class = Airport>, fillcolor="#e5813900"] ;
291 -> 292 ;
293 [label=<Light Bluish Gray &le; 0.168<br/>gini = 0.56<br/>samples = 5<br/>value = [0, 0, 0, 1, 0, 0, 0, 3, 1, 0]<br/>class = Ninjago>, fillcolor="#a339e57f"] ;
292 -> 293 ;
294 [label=<gini = 0.0<br/>samples = 3<br/>value = [0, 0, 0, 0, 0, 0, 0, 3, 0, 0]<br/>class = Ninjago>, fillcolor="#a339e5ff"] ;
293 -> 294 ;
295 [label=<Blue &le; 0.015<br/>gini = 0.5<br/>samples = 2<br/>value = [0, 0, 0, 1, 0, 0, 0, 0, 1, 0]<br/>class = Construction>, fillcolor="#39e55e00"] ;
293 -> 295 ;
296 [label=<gini = 0.0<br/>samples = 1<br/>value = [0, 0, 0, 0, 0, 0, 0, 0, 1, 0]<br/>class = Star Wars>, fillcolor="#e539c0ff"] ;
295 -> 296 ;
297 [label=<gini = 0.0<br/>samples = 1<br/>value = [0, 0, 0, 1, 0, 0, 0, 0, 0, 0]<br/>class = Construction>, fillcolor="#39e55eff"] ;
295 -> 297 ;
298 [label=<gini = 0.0<br/>samples = 3<br/>value = [3, 0, 0, 0, 0, 0, 0, 0, 0, 0]<br/>class = Airport>, fillcolor="#e58139ff"] ;
292 -> 298 ;
299 [label=<Dark Bluish Gray &le; 0.045<br/>gini = 0.449<br/>samples = 7<br/>value = [1, 0, 1, 0, 0, 0, 0, 0, 0, 5]<br/>class = Technic>, fillcolor="#e53958aa"] ;
291 -> 299 ;
300 [label=<Red &le; 0.048<br/>gini = 0.5<br/>samples = 2<br/>value = [1, 0, 1, 0, 0, 0, 0, 0, 0, 0]<br/>class = Airport>, fillcolor="#e5813900"] ;
299 -> 300 ;
301 [label=<gini = 0.0<br/>samples = 1<br/>value = [1, 0, 0, 0, 0, 0, 0, 0, 0, 0]<br/>class = Airport>, fillcolor="#e58139ff"] ;
300 -> 301 ;
302 [label=<gini = 0.0<br/>samples = 1<br/>value = [0, 0, 1, 0, 0, 0, 0, 0, 0, 0]<br/>class = City>, fillcolor="#7be539ff"] ;
300 -> 302 ;
303 [label=<gini = 0.0<br/>samples = 5<br/>value = [0, 0, 0, 0, 0, 0, 0, 0, 0, 5]<br/>class = Technic>, fillcolor="#e53958ff"] ;
299 -> 303 ;
304 [label=<Tan &le; 0.013<br/>gini = 0.449<br/>samples = 7<br/>value = [0, 0, 0, 0, 1, 5, 1, 0, 0, 0]<br/>class = Duplo>, fillcolor="#399de5aa"] ;
182 -> 304 ;
305 [label=<Medium Blue &le; 0.458<br/>gini = 0.278<br/>samples = 6<br/>value = [0, 0, 0, 0, 0, 5, 1, 0, 0, 0]<br/>class = Duplo>, fillcolor="#399de5cc"] ;
304 -> 305 ;
306 [label=<gini = 0.0<br/>samples = 5<br/>value = [0, 0, 0, 0, 0, 5, 0, 0, 0, 0]<br/>class = Duplo>, fillcolor="#399de5ff"] ;
305 -> 306 ;
307 [label=<gini = 0.0<br/>samples = 1<br/>value = [0, 0, 0, 0, 0, 0, 1, 0, 0, 0]<br/>class = Friends>, fillcolor="#3c39e5ff"] ;
305 -> 307 ;
308 [label=<gini = 0.0<br/>samples = 1<br/>value = [0, 0, 0, 0, 1, 0, 0, 0, 0, 0]<br/>class = Creator>, fillcolor="#39e5c5ff"] ;
304 -> 308 ;
309 [label=<Dark Brown &le; 0.086<br/>gini = 0.277<br/>samples = 19<br/>value = [0, 0, 2, 0, 16, 0, 0, 0, 1, 0]<br/>class = Creator>, fillcolor="#39e5c5d2"] ;
181 -> 309 ;
310 [label=<Dark Bluish Gray &le; 0.168<br/>gini = 0.111<br/>samples = 17<br/>value = [0, 0, 0, 0, 16, 0, 0, 0, 1, 0]<br/>class = Creator>, fillcolor="#39e5c5ef"] ;
309 -> 310 ;
311 [label=<gini = 0.0<br/>samples = 16<br/>value = [0, 0, 0, 0, 16, 0, 0, 0, 0, 0]<br/>class = Creator>, fillcolor="#39e5c5ff"] ;
310 -> 311 ;
312 [label=<gini = 0.0<br/>samples = 1<br/>value = [0, 0, 0, 0, 0, 0, 0, 0, 1, 0]<br/>class = Star Wars>, fillcolor="#e539c0ff"] ;
310 -> 312 ;
313 [label=<gini = 0.0<br/>samples = 2<br/>value = [0, 0, 2, 0, 0, 0, 0, 0, 0, 0]<br/>class = City>, fillcolor="#7be539ff"] ;
309 -> 313 ;
314 [label=<Reddish Brown &le; 0.083<br/>gini = 0.379<br/>samples = 13<br/>value = [0, 0, 0, 0, 1, 10, 2, 0, 0, 0]<br/>class = Duplo>, fillcolor="#399de5b9"] ;
180 -> 314 ;
315 [label=<gini = 0.0<br/>samples = 9<br/>value = [0, 0, 0, 0, 0, 9, 0, 0, 0, 0]<br/>class = Duplo>, fillcolor="#399de5ff"] ;
314 -> 315 ;
316 [label=<Bright Green &le; 0.113<br/>gini = 0.625<br/>samples = 4<br/>value = [0, 0, 0, 0, 1, 1, 2, 0, 0, 0]<br/>class = Friends>, fillcolor="#3c39e555"] ;
314 -> 316 ;
317 [label=<Green &le; 0.036<br/>gini = 0.5<br/>samples = 2<br/>value = [0, 0, 0, 0, 1, 1, 0, 0, 0, 0]<br/>class = Creator>, fillcolor="#39e5c500"] ;
316 -> 317 ;
318 [label=<gini = 0.0<br/>samples = 1<br/>value = [0, 0, 0, 0, 0, 1, 0, 0, 0, 0]<br/>class = Duplo>, fillcolor="#399de5ff"] ;
317 -> 318 ;
319 [label=<gini = 0.0<br/>samples = 1<br/>value = [0, 0, 0, 0, 1, 0, 0, 0, 0, 0]<br/>class = Creator>, fillcolor="#39e5c5ff"] ;
317 -> 319 ;
320 [label=<gini = 0.0<br/>samples = 2<br/>value = [0, 0, 0, 0, 0, 0, 2, 0, 0, 0]<br/>class = Friends>, fillcolor="#3c39e5ff"] ;
316 -> 320 ;
321 [label=<Medium Blue &le; 0.007<br/>gini = 0.337<br/>samples = 14<br/>value = [0, 0, 0, 0, 0, 3, 11, 0, 0, 0]<br/>class = Friends>, fillcolor="#3c39e5b9"] ;
179 -> 321 ;
322 [label=<gini = 0.0<br/>samples = 10<br/>value = [0, 0, 0, 0, 0, 0, 10, 0, 0, 0]<br/>class = Friends>, fillcolor="#3c39e5ff"] ;
321 -> 322 ;
323 [label=<Reddish Brown &le; 0.083<br/>gini = 0.375<br/>samples = 4<br/>value = [0, 0, 0, 0, 0, 3, 1, 0, 0, 0]<br/>class = Duplo>, fillcolor="#399de5aa"] ;
321 -> 323 ;
324 [label=<gini = 0.0<br/>samples = 3<br/>value = [0, 0, 0, 0, 0, 3, 0, 0, 0, 0]<br/>class = Duplo>, fillcolor="#399de5ff"] ;
323 -> 324 ;
325 [label=<gini = 0.0<br/>samples = 1<br/>value = [0, 0, 0, 0, 0, 0, 1, 0, 0, 0]<br/>class = Friends>, fillcolor="#3c39e5ff"] ;
323 -> 325 ;
326 [label=<Dark Pink &le; 0.003<br/>gini = 0.419<br/>samples = 59<br/>value = [0, 0, 0, 0, 0, 1, 16, 0, 42, 0]<br/>class = Star Wars>, fillcolor="#e539c09a"] ;
6 -> 326 ;
327 [label=<Bright Light Orange &le; 0.007<br/>gini = 0.223<br/>samples = 48<br/>value = [0, 0, 0, 0, 0, 1, 5, 0, 42, 0]<br/>class = Star Wars>, fillcolor="#e539c0db"] ;
326 -> 327 ;
328 [label=<Light Flesh &le; 0.375<br/>gini = 0.087<br/>samples = 44<br/>value = [0, 0, 0, 0, 0, 0, 2, 0, 42, 0]<br/>class = Star Wars>, fillcolor="#e539c0f3"] ;
327 -> 328 ;
329 [label=<gini = 0.0<br/>samples = 42<br/>value = [0, 0, 0, 0, 0, 0, 0, 0, 42, 0]<br/>class = Star Wars>, fillcolor="#e539c0ff"] ;
328 -> 329 ;
330 [label=<gini = 0.0<br/>samples = 2<br/>value = [0, 0, 0, 0, 0, 0, 2, 0, 0, 0]<br/>class = Friends>, fillcolor="#3c39e5ff"] ;
328 -> 330 ;
331 [label=<Bright Light Orange &le; 0.031<br/>gini = 0.375<br/>samples = 4<br/>value = [0, 0, 0, 0, 0, 1, 3, 0, 0, 0]<br/>class = Friends>, fillcolor="#3c39e5aa"] ;
327 -> 331 ;
332 [label=<gini = 0.0<br/>samples = 1<br/>value = [0, 0, 0, 0, 0, 1, 0, 0, 0, 0]<br/>class = Duplo>, fillcolor="#399de5ff"] ;
331 -> 332 ;
333 [label=<gini = 0.0<br/>samples = 3<br/>value = [0, 0, 0, 0, 0, 0, 3, 0, 0, 0]<br/>class = Friends>, fillcolor="#3c39e5ff"] ;
331 -> 333 ;
334 [label=<gini = 0.0<br/>samples = 11<br/>value = [0, 0, 0, 0, 0, 0, 11, 0, 0, 0]<br/>class = Friends>, fillcolor="#3c39e5ff"] ;
326 -> 334 ;
335 [label=<White &le; 0.039<br/>gini = 0.609<br/>samples = 78<br/>value = [46, 4, 0, 6, 1, 1, 0, 0, 8, 12]<br/>class = Airport>, fillcolor="#e5813983"] ;
5 -> 335 ;
336 [label=<Red &le; 0.058<br/>gini = 0.798<br/>samples = 27<br/>value = [5, 2, 0, 4, 1, 1, 0, 0, 6, 8]<br/>class = Technic>, fillcolor="#e5395818"] ;
335 -> 336 ;
337 [label=<Trans-Clear &le; 0.01<br/>gini = 0.612<br/>samples = 11<br/>value = [3, 0, 0, 0, 1, 0, 0, 0, 6, 1]<br/>class = Star Wars>, fillcolor="#e539c060"] ;
336 -> 337 ;
338 [label=<Trans-Red &le; 0.023<br/>gini = 0.519<br/>samples = 9<br/>value = [1, 0, 0, 0, 1, 0, 0, 0, 6, 1]<br/>class = Star Wars>, fillcolor="#e539c09f"] ;
337 -> 338 ;
339 [label=<Light Gray &le; 0.303<br/>gini = 0.245<br/>samples = 7<br/>value = [0, 0, 0, 0, 0, 0, 0, 0, 6, 1]<br/>class = Star Wars>, fillcolor="#e539c0d4"] ;
338 -> 339 ;
340 [label=<gini = 0.0<br/>samples = 6<br/>value = [0, 0, 0, 0, 0, 0, 0, 0, 6, 0]<br/>class = Star Wars>, fillcolor="#e539c0ff"] ;
339 -> 340 ;
341 [label=<gini = 0.0<br/>samples = 1<br/>value = [0, 0, 0, 0, 0, 0, 0, 0, 0, 1]<br/>class = Technic>, fillcolor="#e53958ff"] ;
339 -> 341 ;
342 [label=<Black &le; 0.183<br/>gini = 0.5<br/>samples = 2<br/>value = [1, 0, 0, 0, 1, 0, 0, 0, 0, 0]<br/>class = Airport>, fillcolor="#e5813900"] ;
338 -> 342 ;
343 [label=<gini = 0.0<br/>samples = 1<br/>value = [0, 0, 0, 0, 1, 0, 0, 0, 0, 0]<br/>class = Creator>, fillcolor="#39e5c5ff"] ;
342 -> 343 ;
344 [label=<gini = 0.0<br/>samples = 1<br/>value = [1, 0, 0, 0, 0, 0, 0, 0, 0, 0]<br/>class = Airport>, fillcolor="#e58139ff"] ;
342 -> 344 ;
345 [label=<gini = 0.0<br/>samples = 2<br/>value = [2, 0, 0, 0, 0, 0, 0, 0, 0, 0]<br/>class = Airport>, fillcolor="#e58139ff"] ;
337 -> 345 ;
346 [label=<Trans-Yellow &le; 0.009<br/>gini = 0.711<br/>samples = 16<br/>value = [2, 2, 0, 4, 0, 1, 0, 0, 0, 7]<br/>class = Technic>, fillcolor="#e5395840"] ;
336 -> 346 ;
347 [label=<Chrome Silver &le; 0.015<br/>gini = 0.627<br/>samples = 13<br/>value = [2, 0, 0, 3, 0, 1, 0, 0, 0, 7]<br/>class = Technic>, fillcolor="#e5395866"] ;
346 -> 347 ;
348 [label=<Light Gray &le; 0.363<br/>gini = 0.512<br/>samples = 11<br/>value = [1, 0, 0, 3, 0, 0, 0, 0, 0, 7]<br/>class = Technic>, fillcolor="#e5395880"] ;
347 -> 348 ;
349 [label=<Light Gray &le; 0.291<br/>gini = 0.42<br/>samples = 10<br/>value = [0, 0, 0, 3, 0, 0, 0, 0, 0, 7]<br/>class = Technic>, fillcolor="#e5395892"] ;
348 -> 349 ;
350 [label=<Blue &le; 0.001<br/>gini = 0.5<br/>samples = 6<br/>value = [0, 0, 0, 3, 0, 0, 0, 0, 0, 3]<br/>class = Construction>, fillcolor="#39e55e00"] ;
349 -> 350 ;
351 [label=<gini = 0.0<br/>samples = 2<br/>value = [0, 0, 0, 0, 0, 0, 0, 0, 0, 2]<br/>class = Technic>, fillcolor="#e53958ff"] ;
350 -> 351 ;
352 [label=<Trans-Green &le; 0.002<br/>gini = 0.375<br/>samples = 4<br/>value = [0, 0, 0, 3, 0, 0, 0, 0, 0, 1]<br/>class = Construction>, fillcolor="#39e55eaa"] ;
350 -> 352 ;
353 [label=<gini = 0.0<br/>samples = 3<br/>value = [0, 0, 0, 3, 0, 0, 0, 0, 0, 0]<br/>class = Construction>, fillcolor="#39e55eff"] ;
352 -> 353 ;
354 [label=<gini = 0.0<br/>samples = 1<br/>value = [0, 0, 0, 0, 0, 0, 0, 0, 0, 1]<br/>class = Technic>, fillcolor="#e53958ff"] ;
352 -> 354 ;
355 [label=<gini = 0.0<br/>samples = 4<br/>value = [0, 0, 0, 0, 0, 0, 0, 0, 0, 4]<br/>class = Technic>, fillcolor="#e53958ff"] ;
349 -> 355 ;
356 [label=<gini = 0.0<br/>samples = 1<br/>value = [1, 0, 0, 0, 0, 0, 0, 0, 0, 0]<br/>class = Airport>, fillcolor="#e58139ff"] ;
348 -> 356 ;
357 [label=<[No Color] &le; 0.05<br/>gini = 0.5<br/>samples = 2<br/>value = [1, 0, 0, 0, 0, 1, 0, 0, 0, 0]<br/>class = Airport>, fillcolor="#e5813900"] ;
347 -> 357 ;
358 [label=<gini = 0.0<br/>samples = 1<br/>value = [1, 0, 0, 0, 0, 0, 0, 0, 0, 0]<br/>class = Airport>, fillcolor="#e58139ff"] ;
357 -> 358 ;
359 [label=<gini = 0.0<br/>samples = 1<br/>value = [0, 0, 0, 0, 0, 1, 0, 0, 0, 0]<br/>class = Duplo>, fillcolor="#399de5ff"] ;
357 -> 359 ;
360 [label=<Black &le; 0.205<br/>gini = 0.444<br/>samples = 3<br/>value = [0, 2, 0, 1, 0, 0, 0, 0, 0, 0]<br/>class = Basic Set>, fillcolor="#e2e5397f"] ;
346 -> 360 ;
361 [label=<gini = 0.0<br/>samples = 2<br/>value = [0, 2, 0, 0, 0, 0, 0, 0, 0, 0]<br/>class = Basic Set>, fillcolor="#e2e539ff"] ;
360 -> 361 ;
362 [label=<gini = 0.0<br/>samples = 1<br/>value = [0, 0, 0, 1, 0, 0, 0, 0, 0, 0]<br/>class = Construction>, fillcolor="#39e55eff"] ;
360 -> 362 ;
363 [label=<Black &le; 0.018<br/>gini = 0.343<br/>samples = 51<br/>value = [41, 2, 0, 2, 0, 0, 0, 0, 2, 4]<br/>class = Airport>, fillcolor="#e58139c9"] ;
335 -> 363 ;
364 [label=<White &le; 0.334<br/>gini = 0.625<br/>samples = 4<br/>value = [1, 2, 0, 0, 0, 0, 0, 0, 0, 1]<br/>class = Basic Set>, fillcolor="#e2e53955"] ;
363 -> 364 ;
365 [label=<Blue &le; 0.143<br/>gini = 0.5<br/>samples = 2<br/>value = [1, 0, 0, 0, 0, 0, 0, 0, 0, 1]<br/>class = Airport>, fillcolor="#e5813900"] ;
364 -> 365 ;
366 [label=<gini = 0.0<br/>samples = 1<br/>value = [1, 0, 0, 0, 0, 0, 0, 0, 0, 0]<br/>class = Airport>, fillcolor="#e58139ff"] ;
365 -> 366 ;
367 [label=<gini = 0.0<br/>samples = 1<br/>value = [0, 0, 0, 0, 0, 0, 0, 0, 0, 1]<br/>class = Technic>, fillcolor="#e53958ff"] ;
365 -> 367 ;
368 [label=<gini = 0.0<br/>samples = 2<br/>value = [0, 2, 0, 0, 0, 0, 0, 0, 0, 0]<br/>class = Basic Set>, fillcolor="#e2e539ff"] ;
364 -> 368 ;
369 [label=<Black &le; 0.166<br/>gini = 0.268<br/>samples = 47<br/>value = [40, 0, 0, 2, 0, 0, 0, 0, 2, 3]<br/>class = Airport>, fillcolor="#e58139d6"] ;
363 -> 369 ;
370 [label=<White &le; 0.116<br/>gini = 0.062<br/>samples = 31<br/>value = [30, 0, 0, 1, 0, 0, 0, 0, 0, 0]<br/>class = Airport>, fillcolor="#e58139f6"] ;
369 -> 370 ;
371 [label=<Light Gray &le; 0.172<br/>gini = 0.5<br/>samples = 2<br/>value = [1, 0, 0, 1, 0, 0, 0, 0, 0, 0]<br/>class = Airport>, fillcolor="#e5813900"] ;
370 -> 371 ;
372 [label=<gini = 0.0<br/>samples = 1<br/>value = [0, 0, 0, 1, 0, 0, 0, 0, 0, 0]<br/>class = Construction>, fillcolor="#39e55eff"] ;
371 -> 372 ;
373 [label=<gini = 0.0<br/>samples = 1<br/>value = [1, 0, 0, 0, 0, 0, 0, 0, 0, 0]<br/>class = Airport>, fillcolor="#e58139ff"] ;
371 -> 373 ;
374 [label=<gini = 0.0<br/>samples = 29<br/>value = [29, 0, 0, 0, 0, 0, 0, 0, 0, 0]<br/>class = Airport>, fillcolor="#e58139ff"] ;
370 -> 374 ;
375 [label=<Blue &le; 0.22<br/>gini = 0.555<br/>samples = 16<br/>value = [10, 0, 0, 1, 0, 0, 0, 0, 2, 3]<br/>class = Airport>, fillcolor="#e5813989"] ;
369 -> 375 ;
376 [label=<Trans-Dark Blue &le; 0.041<br/>gini = 0.449<br/>samples = 14<br/>value = [10, 0, 0, 0, 0, 0, 0, 0, 2, 2]<br/>class = Airport>, fillcolor="#e58139aa"] ;
375 -> 376 ;
377 [label=<Yellow &le; 0.034<br/>gini = 0.379<br/>samples = 13<br/>value = [10, 0, 0, 0, 0, 0, 0, 0, 2, 1]<br/>class = Airport>, fillcolor="#e58139b9"] ;
376 -> 377 ;
378 [label=<Dark Blue &le; 0.035<br/>gini = 0.278<br/>samples = 12<br/>value = [10, 0, 0, 0, 0, 0, 0, 0, 2, 0]<br/>class = Airport>, fillcolor="#e58139cc"] ;
377 -> 378 ;
379 [label=<Orange &le; 0.001<br/>gini = 0.165<br/>samples = 11<br/>value = [10, 0, 0, 0, 0, 0, 0, 0, 1, 0]<br/>class = Airport>, fillcolor="#e58139e6"] ;
378 -> 379 ;
380 [label=<gini = 0.0<br/>samples = 9<br/>value = [9, 0, 0, 0, 0, 0, 0, 0, 0, 0]<br/>class = Airport>, fillcolor="#e58139ff"] ;
379 -> 380 ;
381 [label=<White &le; 0.339<br/>gini = 0.5<br/>samples = 2<br/>value = [1, 0, 0, 0, 0, 0, 0, 0, 1, 0]<br/>class = Airport>, fillcolor="#e5813900"] ;
379 -> 381 ;
382 [label=<gini = 0.0<br/>samples = 1<br/>value = [1, 0, 0, 0, 0, 0, 0, 0, 0, 0]<br/>class = Airport>, fillcolor="#e58139ff"] ;
381 -> 382 ;
383 [label=<gini = 0.0<br/>samples = 1<br/>value = [0, 0, 0, 0, 0, 0, 0, 0, 1, 0]<br/>class = Star Wars>, fillcolor="#e539c0ff"] ;
381 -> 383 ;
384 [label=<gini = 0.0<br/>samples = 1<br/>value = [0, 0, 0, 0, 0, 0, 0, 0, 1, 0]<br/>class = Star Wars>, fillcolor="#e539c0ff"] ;
378 -> 384 ;
385 [label=<gini = 0.0<br/>samples = 1<br/>value = [0, 0, 0, 0, 0, 0, 0, 0, 0, 1]<br/>class = Technic>, fillcolor="#e53958ff"] ;
377 -> 385 ;
386 [label=<gini = 0.0<br/>samples = 1<br/>value = [0, 0, 0, 0, 0, 0, 0, 0, 0, 1]<br/>class = Technic>, fillcolor="#e53958ff"] ;
376 -> 386 ;
387 [label=<Yellow &le; 0.017<br/>gini = 0.5<br/>samples = 2<br/>value = [0, 0, 0, 1, 0, 0, 0, 0, 0, 1]<br/>class = Construction>, fillcolor="#39e55e00"] ;
375 -> 387 ;
388 [label=<gini = 0.0<br/>samples = 1<br/>value = [0, 0, 0, 0, 0, 0, 0, 0, 0, 1]<br/>class = Technic>, fillcolor="#e53958ff"] ;
387 -> 388 ;
389 [label=<gini = 0.0<br/>samples = 1<br/>value = [0, 0, 0, 1, 0, 0, 0, 0, 0, 0]<br/>class = Construction>, fillcolor="#39e55eff"] ;
387 -> 389 ;
390 [label=<gini = 0.0<br/>samples = 45<br/>value = [0, 0, 0, 0, 0, 0, 0, 0, 0, 45]<br/>class = Technic>, fillcolor="#e53958ff"] ;
4 -> 390 ;
391 [label=<Black &le; 0.182<br/>gini = 0.838<br/>samples = 483<br/>value = [35, 128, 72, 94, 46, 54, 12, 4, 6, 32]<br/>class = Basic Set>, fillcolor="#e2e53916"] ;
3 -> 391 ;
392 [label=<Blue &le; 0.103<br/>gini = 0.788<br/>samples = 310<br/>value = [20, 119, 38, 9, 31, 52, 12, 2, 6, 21]<br/>class = Basic Set>, fillcolor="#e2e53942"] ;
391 -> 392 ;
393 [label=<Bright Green &le; 0.03<br/>gini = 0.855<br/>samples = 166<br/>value = [10, 17, 30, 8, 25, 38, 12, 2, 4, 20]<br/>class = Duplo>, fillcolor="#399de50f"] ;
392 -> 393 ;
394 [label=<Yellow &le; 0.611<br/>gini = 0.863<br/>samples = 139<br/>value = [10, 15, 30, 8, 25, 13, 12, 2, 4, 20]<br/>class = City>, fillcolor="#7be5390b"] ;
393 -> 394 ;
395 [label=<Blue &le; 0.021<br/>gini = 0.848<br/>samples = 122<br/>value = [10, 15, 30, 8, 25, 13, 12, 2, 4, 3]<br/>class = City>, fillcolor="#7be5390d"] ;
394 -> 395 ;
396 [label=<Lime &le; 0.022<br/>gini = 0.805<br/>samples = 82<br/>value = [6, 0, 25, 3, 21, 7, 11, 2, 4, 3]<br/>class = City>, fillcolor="#7be53911"] ;
395 -> 396 ;
397 [label=<Black &le; 0.136<br/>gini = 0.782<br/>samples = 71<br/>value = [6, 0, 25, 3, 19, 4, 5, 2, 4, 3]<br/>class = City>, fillcolor="#7be5391d"] ;
396 -> 397 ;
398 [label=<Light Bluish Gray &le; 0.015<br/>gini = 0.706<br/>samples = 53<br/>value = [1, 0, 24, 0, 14, 3, 5, 1, 4, 1]<br/>class = City>, fillcolor="#7be53941"] ;
397 -> 398 ;
399 [label=<Dark Bluish Gray &le; 0.104<br/>gini = 0.566<br/>samples = 29<br/>value = [1, 0, 18, 0, 6, 1, 1, 1, 0, 1]<br/>class = City>, fillcolor="#7be53985"] ;
398 -> 399 ;
400 [label=<Black &le; 0.029<br/>gini = 0.665<br/>samples = 22<br/>value = [1, 0, 11, 0, 6, 1, 1, 1, 0, 1]<br/>class = City>, fillcolor="#7be53950"] ;
399 -> 400 ;
401 [label=<White &le; 0.306<br/>gini = 0.609<br/>samples = 19<br/>value = [1, 0, 11, 0, 4, 0, 1, 1, 0, 1]<br/>class = City>, fillcolor="#7be53977"] ;
400 -> 401 ;
402 [label=<Red &le; 0.5<br/>gini = 0.694<br/>samples = 12<br/>value = [1, 0, 5, 0, 4, 0, 0, 1, 0, 1]<br/>class = City>, fillcolor="#7be53920"] ;
401 -> 402 ;
403 [label=<Dark Purple &le; 0.071<br/>gini = 0.645<br/>samples = 11<br/>value = [0, 0, 5, 0, 4, 0, 0, 1, 0, 1]<br/>class = City>, fillcolor="#7be53924"] ;
402 -> 403 ;
404 [label=<Royal Blue &le; 0.25<br/>gini = 0.58<br/>samples = 10<br/>value = [0, 0, 5, 0, 4, 0, 0, 0, 0, 1]<br/>class = City>, fillcolor="#7be5392a"] ;
403 -> 404 ;
405 [label=<Reddish Brown &le; 0.068<br/>gini = 0.494<br/>samples = 9<br/>value = [0, 0, 5, 0, 4, 0, 0, 0, 0, 0]<br/>class = City>, fillcolor="#7be53933"] ;
404 -> 405 ;
406 [label=<Green &le; 0.062<br/>gini = 0.49<br/>samples = 7<br/>value = [0, 0, 3, 0, 4, 0, 0, 0, 0, 0]<br/>class = Creator>, fillcolor="#39e5c540"] ;
405 -> 406 ;
407 [label=<Yellow &le; 0.472<br/>gini = 0.375<br/>samples = 4<br/>value = [0, 0, 3, 0, 1, 0, 0, 0, 0, 0]<br/>class = City>, fillcolor="#7be539aa"] ;
406 -> 407 ;
408 [label=<gini = 0.0<br/>samples = 3<br/>value = [0, 0, 3, 0, 0, 0, 0, 0, 0, 0]<br/>class = City>, fillcolor="#7be539ff"] ;
407 -> 408 ;
409 [label=<gini = 0.0<br/>samples = 1<br/>value = [0, 0, 0, 0, 1, 0, 0, 0, 0, 0]<br/>class = Creator>, fillcolor="#39e5c5ff"] ;
407 -> 409 ;
410 [label=<gini = 0.0<br/>samples = 3<br/>value = [0, 0, 0, 0, 3, 0, 0, 0, 0, 0]<br/>class = Creator>, fillcolor="#39e5c5ff"] ;
406 -> 410 ;
411 [label=<gini = 0.0<br/>samples = 2<br/>value = [0, 0, 2, 0, 0, 0, 0, 0, 0, 0]<br/>class = City>, fillcolor="#7be539ff"] ;
405 -> 411 ;
412 [label=<gini = 0.0<br/>samples = 1<br/>value = [0, 0, 0, 0, 0, 0, 0, 0, 0, 1]<br/>class = Technic>, fillcolor="#e53958ff"] ;
404 -> 412 ;
413 [label=<gini = 0.0<br/>samples = 1<br/>value = [0, 0, 0, 0, 0, 0, 0, 1, 0, 0]<br/>class = Ninjago>, fillcolor="#a339e5ff"] ;
403 -> 413 ;
414 [label=<gini = 0.0<br/>samples = 1<br/>value = [1, 0, 0, 0, 0, 0, 0, 0, 0, 0]<br/>class = Airport>, fillcolor="#e58139ff"] ;
402 -> 414 ;
415 [label=<Medium Blue &le; 0.042<br/>gini = 0.245<br/>samples = 7<br/>value = [0, 0, 6, 0, 0, 0, 1, 0, 0, 0]<br/>class = City>, fillcolor="#7be539d4"] ;
401 -> 415 ;
416 [label=<gini = 0.0<br/>samples = 6<br/>value = [0, 0, 6, 0, 0, 0, 0, 0, 0, 0]<br/>class = City>, fillcolor="#7be539ff"] ;
415 -> 416 ;
417 [label=<gini = 0.0<br/>samples = 1<br/>value = [0, 0, 0, 0, 0, 0, 1, 0, 0, 0]<br/>class = Friends>, fillcolor="#3c39e5ff"] ;
415 -> 417 ;
418 [label=<Very Light Bluish Gray &le; 0.018<br/>gini = 0.444<br/>samples = 3<br/>value = [0, 0, 0, 0, 2, 1, 0, 0, 0, 0]<br/>class = Creator>, fillcolor="#39e5c57f"] ;
400 -> 418 ;
419 [label=<gini = 0.0<br/>samples = 2<br/>value = [0, 0, 0, 0, 2, 0, 0, 0, 0, 0]<br/>class = Creator>, fillcolor="#39e5c5ff"] ;
418 -> 419 ;
420 [label=<gini = 0.0<br/>samples = 1<br/>value = [0, 0, 0, 0, 0, 1, 0, 0, 0, 0]<br/>class = Duplo>, fillcolor="#399de5ff"] ;
418 -> 420 ;
421 [label=<gini = 0.0<br/>samples = 7<br/>value = [0, 0, 7, 0, 0, 0, 0, 0, 0, 0]<br/>class = City>, fillcolor="#7be539ff"] ;
399 -> 421 ;
422 [label=<Blue &le; 0.009<br/>gini = 0.764<br/>samples = 24<br/>value = [0, 0, 6, 0, 8, 2, 4, 0, 4, 0]<br/>class = Creator>, fillcolor="#39e5c51c"] ;
398 -> 422 ;
423 [label=<Red &le; 0.098<br/>gini = 0.753<br/>samples = 21<br/>value = [0, 0, 3, 0, 8, 2, 4, 0, 4, 0]<br/>class = Creator>, fillcolor="#39e5c53c"] ;
422 -> 423 ;
424 [label=<Dark Bluish Gray &le; 0.014<br/>gini = 0.694<br/>samples = 11<br/>value = [0, 0, 0, 0, 2, 1, 4, 0, 4, 0]<br/>class = Friends>, fillcolor="#3c39e500"] ;
423 -> 424 ;
425 [label=<Trans-Clear &le; 0.145<br/>gini = 0.32<br/>samples = 5<br/>value = [0, 0, 0, 0, 1, 0, 4, 0, 0, 0]<br/>class = Friends>, fillcolor="#3c39e5bf"] ;
424 -> 425 ;
426 [label=<gini = 0.0<br/>samples = 4<br/>value = [0, 0, 0, 0, 0, 0, 4, 0, 0, 0]<br/>class = Friends>, fillcolor="#3c39e5ff"] ;
425 -> 426 ;
427 [label=<gini = 0.0<br/>samples = 1<br/>value = [0, 0, 0, 0, 1, 0, 0, 0, 0, 0]<br/>class = Creator>, fillcolor="#39e5c5ff"] ;
425 -> 427 ;
428 [label=<Green &le; 0.012<br/>gini = 0.5<br/>samples = 6<br/>value = [0, 0, 0, 0, 1, 1, 0, 0, 4, 0]<br/>class = Star Wars>, fillcolor="#e539c099"] ;
424 -> 428 ;
429 [label=<Dark Bluish Gray &le; 0.301<br/>gini = 0.32<br/>samples = 5<br/>value = [0, 0, 0, 0, 0, 1, 0, 0, 4, 0]<br/>class = Star Wars>, fillcolor="#e539c0bf"] ;
428 -> 429 ;
430 [label=<gini = 0.0<br/>samples = 4<br/>value = [0, 0, 0, 0, 0, 0, 0, 0, 4, 0]<br/>class = Star Wars>, fillcolor="#e539c0ff"] ;
429 -> 430 ;
431 [label=<gini = 0.0<br/>samples = 1<br/>value = [0, 0, 0, 0, 0, 1, 0, 0, 0, 0]<br/>class = Duplo>, fillcolor="#399de5ff"] ;
429 -> 431 ;
432 [label=<gini = 0.0<br/>samples = 1<br/>value = [0, 0, 0, 0, 1, 0, 0, 0, 0, 0]<br/>class = Creator>, fillcolor="#39e5c5ff"] ;
428 -> 432 ;
433 [label=<Green &le; 0.094<br/>gini = 0.54<br/>samples = 10<br/>value = [0, 0, 3, 0, 6, 1, 0, 0, 0, 0]<br/>class = Creator>, fillcolor="#39e5c56d"] ;
423 -> 433 ;
434 [label=<Black &le; 0.125<br/>gini = 0.406<br/>samples = 8<br/>value = [0, 0, 1, 0, 6, 1, 0, 0, 0, 0]<br/>class = Creator>, fillcolor="#39e5c5b6"] ;
433 -> 434 ;
435 [label=<Medium Blue &le; 0.036<br/>gini = 0.245<br/>samples = 7<br/>value = [0, 0, 0, 0, 6, 1, 0, 0, 0, 0]<br/>class = Creator>, fillcolor="#39e5c5d4"] ;
434 -> 435 ;
436 [label=<gini = 0.0<br/>samples = 6<br/>value = [0, 0, 0, 0, 6, 0, 0, 0, 0, 0]<br/>class = Creator>, fillcolor="#39e5c5ff"] ;
435 -> 436 ;
437 [label=<gini = 0.0<br/>samples = 1<br/>value = [0, 0, 0, 0, 0, 1, 0, 0, 0, 0]<br/>class = Duplo>, fillcolor="#399de5ff"] ;
435 -> 437 ;
438 [label=<gini = 0.0<br/>samples = 1<br/>value = [0, 0, 1, 0, 0, 0, 0, 0, 0, 0]<br/>class = City>, fillcolor="#7be539ff"] ;
434 -> 438 ;
439 [label=<gini = 0.0<br/>samples = 2<br/>value = [0, 0, 2, 0, 0, 0, 0, 0, 0, 0]<br/>class = City>, fillcolor="#7be539ff"] ;
433 -> 439 ;
440 [label=<gini = 0.0<br/>samples = 3<br/>value = [0, 0, 3, 0, 0, 0, 0, 0, 0, 0]<br/>class = City>, fillcolor="#7be539ff"] ;
422 -> 440 ;
441 [label=<Trans-Orange &le; 0.006<br/>gini = 0.796<br/>samples = 18<br/>value = [5, 0, 1, 3, 5, 1, 0, 1, 0, 2]<br/>class = Airport>, fillcolor="#e5813900"] ;
397 -> 441 ;
442 [label=<Trans-Clear &le; 0.003<br/>gini = 0.747<br/>samples = 15<br/>value = [5, 0, 1, 0, 5, 1, 0, 1, 0, 2]<br/>class = Airport>, fillcolor="#e5813900"] ;
441 -> 442 ;
443 [label=<Light Bluish Gray &le; 0.099<br/>gini = 0.642<br/>samples = 9<br/>value = [1, 0, 1, 0, 5, 1, 0, 1, 0, 0]<br/>class = Creator>, fillcolor="#39e5c580"] ;
442 -> 443 ;
444 [label=<Blue &le; 0.006<br/>gini = 0.8<br/>samples = 5<br/>value = [1, 0, 1, 0, 1, 1, 0, 1, 0, 0]<br/>class = Airport>, fillcolor="#e5813900"] ;
443 -> 444 ;
445 [label=<Trans-Light Blue &le; 0.045<br/>gini = 0.75<br/>samples = 4<br/>value = [0, 0, 1, 0, 1, 1, 0, 1, 0, 0]<br/>class = City>, fillcolor="#7be53900"] ;
444 -> 445 ;
446 [label=<Orange &le; 0.03<br/>gini = 0.667<br/>samples = 3<br/>value = [0, 0, 0, 0, 1, 1, 0, 1, 0, 0]<br/>class = Creator>, fillcolor="#39e5c500"] ;
445 -> 446 ;
447 [label=<Yellow &le; 0.117<br/>gini = 0.5<br/>samples = 2<br/>value = [0, 0, 0, 0, 1, 1, 0, 0, 0, 0]<br/>class = Creator>, fillcolor="#39e5c500"] ;
446 -> 447 ;
448 [label=<gini = 0.0<br/>samples = 1<br/>value = [0, 0, 0, 0, 0, 1, 0, 0, 0, 0]<br/>class = Duplo>, fillcolor="#399de5ff"] ;
447 -> 448 ;
449 [label=<gini = 0.0<br/>samples = 1<br/>value = [0, 0, 0, 0, 1, 0, 0, 0, 0, 0]<br/>class = Creator>, fillcolor="#39e5c5ff"] ;
447 -> 449 ;
450 [label=<gini = 0.0<br/>samples = 1<br/>value = [0, 0, 0, 0, 0, 0, 0, 1, 0, 0]<br/>class = Ninjago>, fillcolor="#a339e5ff"] ;
446 -> 450 ;
451 [label=<gini = 0.0<br/>samples = 1<br/>value = [0, 0, 1, 0, 0, 0, 0, 0, 0, 0]<br/>class = City>, fillcolor="#7be539ff"] ;
445 -> 451 ;
452 [label=<gini = 0.0<br/>samples = 1<br/>value = [1, 0, 0, 0, 0, 0, 0, 0, 0, 0]<br/>class = Airport>, fillcolor="#e58139ff"] ;
444 -> 452 ;
453 [label=<gini = 0.0<br/>samples = 4<br/>value = [0, 0, 0, 0, 4, 0, 0, 0, 0, 0]<br/>class = Creator>, fillcolor="#39e5c5ff"] ;
443 -> 453 ;
454 [label=<[No Color] &le; 0.006<br/>gini = 0.444<br/>samples = 6<br/>value = [4, 0, 0, 0, 0, 0, 0, 0, 0, 2]<br/>class = Airport>, fillcolor="#e581397f"] ;
442 -> 454 ;
455 [label=<gini = 0.0<br/>samples = 4<br/>value = [4, 0, 0, 0, 0, 0, 0, 0, 0, 0]<br/>class = Airport>, fillcolor="#e58139ff"] ;
454 -> 455 ;
456 [label=<gini = 0.0<br/>samples = 2<br/>value = [0, 0, 0, 0, 0, 0, 0, 0, 0, 2]<br/>class = Technic>, fillcolor="#e53958ff"] ;
454 -> 456 ;
457 [label=<gini = 0.0<br/>samples = 3<br/>value = [0, 0, 0, 3, 0, 0, 0, 0, 0, 0]<br/>class = Construction>, fillcolor="#39e55eff"] ;
441 -> 457 ;
458 [label=<Bright Light Orange &le; 0.045<br/>gini = 0.595<br/>samples = 11<br/>value = [0, 0, 0, 0, 2, 3, 6, 0, 0, 0]<br/>class = Friends>, fillcolor="#3c39e560"] ;
396 -> 458 ;
459 [label=<Dark Bluish Gray &le; 0.008<br/>gini = 0.375<br/>samples = 8<br/>value = [0, 0, 0, 0, 2, 0, 6, 0, 0, 0]<br/>class = Friends>, fillcolor="#3c39e5aa"] ;
458 -> 459 ;
460 [label=<gini = 0.0<br/>samples = 6<br/>value = [0, 0, 0, 0, 0, 0, 6, 0, 0, 0]<br/>class = Friends>, fillcolor="#3c39e5ff"] ;
459 -> 460 ;
461 [label=<gini = 0.0<br/>samples = 2<br/>value = [0, 0, 0, 0, 2, 0, 0, 0, 0, 0]<br/>class = Creator>, fillcolor="#39e5c5ff"] ;
459 -> 461 ;
462 [label=<gini = 0.0<br/>samples = 3<br/>value = [0, 0, 0, 0, 0, 3, 0, 0, 0, 0]<br/>class = Duplo>, fillcolor="#399de5ff"] ;
458 -> 462 ;
463 [label=<Light Bluish Gray &le; 0.083<br/>gini = 0.785<br/>samples = 40<br/>value = [4, 15, 5, 5, 4, 6, 1, 0, 0, 0]<br/>class = Basic Set>, fillcolor="#e2e53944"] ;
395 -> 463 ;
464 [label=<Black &le; 0.05<br/>gini = 0.589<br/>samples = 25<br/>value = [2, 15, 1, 1, 1, 5, 0, 0, 0, 0]<br/>class = Basic Set>, fillcolor="#e2e5397f"] ;
463 -> 464 ;
465 [label=<Trans-Clear &le; 0.045<br/>gini = 0.449<br/>samples = 7<br/>value = [0, 1, 0, 1, 0, 5, 0, 0, 0, 0]<br/>class = Duplo>, fillcolor="#399de5aa"] ;
464 -> 465 ;
466 [label=<gini = 0.0<br/>samples = 5<br/>value = [0, 0, 0, 0, 0, 5, 0, 0, 0, 0]<br/>class = Duplo>, fillcolor="#399de5ff"] ;
465 -> 466 ;
467 [label=<Red &le; 0.277<br/>gini = 0.5<br/>samples = 2<br/>value = [0, 1, 0, 1, 0, 0, 0, 0, 0, 0]<br/>class = Basic Set>, fillcolor="#e2e53900"] ;
465 -> 467 ;
468 [label=<gini = 0.0<br/>samples = 1<br/>value = [0, 1, 0, 0, 0, 0, 0, 0, 0, 0]<br/>class = Basic Set>, fillcolor="#e2e539ff"] ;
467 -> 468 ;
469 [label=<gini = 0.0<br/>samples = 1<br/>value = [0, 0, 0, 1, 0, 0, 0, 0, 0, 0]<br/>class = Construction>, fillcolor="#39e55eff"] ;
467 -> 469 ;
470 [label=<Trans-Light Blue &le; 0.015<br/>gini = 0.377<br/>samples = 18<br/>value = [2, 14, 1, 0, 1, 0, 0, 0, 0, 0]<br/>class = Basic Set>, fillcolor="#e2e539bf"] ;
464 -> 470 ;
471 [label=<White &le; 0.026<br/>gini = 0.227<br/>samples = 16<br/>value = [0, 14, 1, 0, 1, 0, 0, 0, 0, 0]<br/>class = Basic Set>, fillcolor="#e2e539dd"] ;
470 -> 471 ;
472 [label=<gini = 0.0<br/>samples = 1<br/>value = [0, 0, 1, 0, 0, 0, 0, 0, 0, 0]<br/>class = City>, fillcolor="#7be539ff"] ;
471 -> 472 ;
473 [label=<Dark Blue &le; 0.033<br/>gini = 0.124<br/>samples = 15<br/>value = [0, 14, 0, 0, 1, 0, 0, 0, 0, 0]<br/>class = Basic Set>, fillcolor="#e2e539ed"] ;
471 -> 473 ;
474 [label=<gini = 0.0<br/>samples = 14<br/>value = [0, 14, 0, 0, 0, 0, 0, 0, 0, 0]<br/>class = Basic Set>, fillcolor="#e2e539ff"] ;
473 -> 474 ;
475 [label=<gini = 0.0<br/>samples = 1<br/>value = [0, 0, 0, 0, 1, 0, 0, 0, 0, 0]<br/>class = Creator>, fillcolor="#39e5c5ff"] ;
473 -> 475 ;
476 [label=<gini = 0.0<br/>samples = 2<br/>value = [2, 0, 0, 0, 0, 0, 0, 0, 0, 0]<br/>class = Airport>, fillcolor="#e58139ff"] ;
470 -> 476 ;
477 [label=<Dark Bluish Gray &le; 0.115<br/>gini = 0.791<br/>samples = 15<br/>value = [2, 0, 4, 4, 3, 1, 1, 0, 0, 0]<br/>class = City>, fillcolor="#7be53900"] ;
463 -> 477 ;
478 [label=<Blue &le; 0.064<br/>gini = 0.667<br/>samples = 6<br/>value = [1, 0, 0, 0, 3, 1, 1, 0, 0, 0]<br/>class = Creator>, fillcolor="#39e5c566"] ;
477 -> 478 ;
479 [label=<Trans-Red &le; 0.009<br/>gini = 0.667<br/>samples = 3<br/>value = [1, 0, 0, 0, 0, 1, 1, 0, 0, 0]<br/>class = Airport>, fillcolor="#e5813900"] ;
478 -> 479 ;
480 [label=<gini = 0.0<br/>samples = 1<br/>value = [0, 0, 0, 0, 0, 1, 0, 0, 0, 0]<br/>class = Duplo>, fillcolor="#399de5ff"] ;
479 -> 480 ;
481 [label=<White &le; 0.239<br/>gini = 0.5<br/>samples = 2<br/>value = [1, 0, 0, 0, 0, 0, 1, 0, 0, 0]<br/>class = Airport>, fillcolor="#e5813900"] ;
479 -> 481 ;
482 [label=<gini = 0.0<br/>samples = 1<br/>value = [0, 0, 0, 0, 0, 0, 1, 0, 0, 0]<br/>class = Friends>, fillcolor="#3c39e5ff"] ;
481 -> 482 ;
483 [label=<gini = 0.0<br/>samples = 1<br/>value = [1, 0, 0, 0, 0, 0, 0, 0, 0, 0]<br/>class = Airport>, fillcolor="#e58139ff"] ;
481 -> 483 ;
484 [label=<gini = 0.0<br/>samples = 3<br/>value = [0, 0, 0, 0, 3, 0, 0, 0, 0, 0]<br/>class = Creator>, fillcolor="#39e5c5ff"] ;
478 -> 484 ;
485 [label=<Dark Red &le; 0.004<br/>gini = 0.593<br/>samples = 9<br/>value = [1, 0, 4, 4, 0, 0, 0, 0, 0, 0]<br/>class = City>, fillcolor="#7be53900"] ;
477 -> 485 ;
486 [label=<Trans-Orange &le; 0.015<br/>gini = 0.5<br/>samples = 6<br/>value = [1, 0, 1, 4, 0, 0, 0, 0, 0, 0]<br/>class = Construction>, fillcolor="#39e55e99"] ;
485 -> 486 ;
487 [label=<Dark Red &le; 0.001<br/>gini = 0.5<br/>samples = 2<br/>value = [1, 0, 1, 0, 0, 0, 0, 0, 0, 0]<br/>class = Airport>, fillcolor="#e5813900"] ;
486 -> 487 ;
488 [label=<gini = 0.0<br/>samples = 1<br/>value = [0, 0, 1, 0, 0, 0, 0, 0, 0, 0]<br/>class = City>, fillcolor="#7be539ff"] ;
487 -> 488 ;
489 [label=<gini = 0.0<br/>samples = 1<br/>value = [1, 0, 0, 0, 0, 0, 0, 0, 0, 0]<br/>class = Airport>, fillcolor="#e58139ff"] ;
487 -> 489 ;
490 [label=<gini = 0.0<br/>samples = 4<br/>value = [0, 0, 0, 4, 0, 0, 0, 0, 0, 0]<br/>class = Construction>, fillcolor="#39e55eff"] ;
486 -> 490 ;
491 [label=<gini = 0.0<br/>samples = 3<br/>value = [0, 0, 3, 0, 0, 0, 0, 0, 0, 0]<br/>class = City>, fillcolor="#7be539ff"] ;
485 -> 491 ;
492 [label=<gini = 0.0<br/>samples = 17<br/>value = [0, 0, 0, 0, 0, 0, 0, 0, 0, 17]<br/>class = Technic>, fillcolor="#e53958ff"] ;
394 -> 492 ;
493 [label=<Medium Azure &le; 0.003<br/>gini = 0.137<br/>samples = 27<br/>value = [0, 2, 0, 0, 0, 25, 0, 0, 0, 0]<br/>class = Duplo>, fillcolor="#399de5eb"] ;
393 -> 493 ;
494 [label=<White &le; 0.273<br/>gini = 0.074<br/>samples = 26<br/>value = [0, 1, 0, 0, 0, 25, 0, 0, 0, 0]<br/>class = Duplo>, fillcolor="#399de5f5"] ;
493 -> 494 ;
495 [label=<gini = 0.0<br/>samples = 25<br/>value = [0, 0, 0, 0, 0, 25, 0, 0, 0, 0]<br/>class = Duplo>, fillcolor="#399de5ff"] ;
494 -> 495 ;
496 [label=<gini = 0.0<br/>samples = 1<br/>value = [0, 1, 0, 0, 0, 0, 0, 0, 0, 0]<br/>class = Basic Set>, fillcolor="#e2e539ff"] ;
494 -> 496 ;
497 [label=<gini = 0.0<br/>samples = 1<br/>value = [0, 1, 0, 0, 0, 0, 0, 0, 0, 0]<br/>class = Basic Set>, fillcolor="#e2e539ff"] ;
493 -> 497 ;
498 [label=<Green &le; 0.006<br/>gini = 0.479<br/>samples = 144<br/>value = [10, 102, 8, 1, 6, 14, 0, 0, 2, 1]<br/>class = Basic Set>, fillcolor="#e2e539ad"] ;
392 -> 498 ;
499 [label=<Red &le; 0.169<br/>gini = 0.76<br/>samples = 51<br/>value = [7, 20, 8, 1, 2, 10, 0, 0, 2, 1]<br/>class = Basic Set>, fillcolor="#e2e5393e"] ;
498 -> 499 ;
500 [label=<Trans-Green &le; 0.004<br/>gini = 0.783<br/>samples = 23<br/>value = [5, 1, 7, 1, 1, 6, 0, 0, 1, 1]<br/>class = City>, fillcolor="#7be5390f"] ;
499 -> 500 ;
501 [label=<Lime &le; 0.028<br/>gini = 0.692<br/>samples = 17<br/>value = [0, 0, 7, 1, 1, 6, 0, 0, 1, 1]<br/>class = City>, fillcolor="#7be53917"] ;
500 -> 501 ;
502 [label=<Dark Bluish Gray &le; 0.01<br/>gini = 0.684<br/>samples = 14<br/>value = [0, 0, 7, 1, 1, 3, 0, 0, 1, 1]<br/>class = City>, fillcolor="#7be5395d"] ;
501 -> 502 ;
503 [label=<Yellow &le; 0.225<br/>gini = 0.48<br/>samples = 10<br/>value = [0, 0, 7, 1, 0, 1, 0, 0, 0, 1]<br/>class = City>, fillcolor="#7be539aa"] ;
502 -> 503 ;
504 [label=<gini = 0.0<br/>samples = 7<br/>value = [0, 0, 7, 0, 0, 0, 0, 0, 0, 0]<br/>class = City>, fillcolor="#7be539ff"] ;
503 -> 504 ;
505 [label=<Brown &le; 0.001<br/>gini = 0.667<br/>samples = 3<br/>value = [0, 0, 0, 1, 0, 1, 0, 0, 0, 1]<br/>class = Construction>, fillcolor="#39e55e00"] ;
503 -> 505 ;
506 [label=<Yellow &le; 0.325<br/>gini = 0.5<br/>samples = 2<br/>value = [0, 0, 0, 0, 0, 1, 0, 0, 0, 1]<br/>class = Duplo>, fillcolor="#399de500"] ;
505 -> 506 ;
507 [label=<gini = 0.0<br/>samples = 1<br/>value = [0, 0, 0, 0, 0, 1, 0, 0, 0, 0]<br/>class = Duplo>, fillcolor="#399de5ff"] ;
506 -> 507 ;
508 [label=<gini = 0.0<br/>samples = 1<br/>value = [0, 0, 0, 0, 0, 0, 0, 0, 0, 1]<br/>class = Technic>, fillcolor="#e53958ff"] ;
506 -> 508 ;
509 [label=<gini = 0.0<br/>samples = 1<br/>value = [0, 0, 0, 1, 0, 0, 0, 0, 0, 0]<br/>class = Construction>, fillcolor="#39e55eff"] ;
505 -> 509 ;
510 [label=<Red &le; 0.025<br/>gini = 0.625<br/>samples = 4<br/>value = [0, 0, 0, 0, 1, 2, 0, 0, 1, 0]<br/>class = Duplo>, fillcolor="#399de555"] ;
502 -> 510 ;
511 [label=<Trans-Black &le; 0.02<br/>gini = 0.5<br/>samples = 2<br/>value = [0, 0, 0, 0, 1, 0, 0, 0, 1, 0]<br/>class = Creator>, fillcolor="#39e5c500"] ;
510 -> 511 ;
512 [label=<gini = 0.0<br/>samples = 1<br/>value = [0, 0, 0, 0, 0, 0, 0, 0, 1, 0]<br/>class = Star Wars>, fillcolor="#e539c0ff"] ;
511 -> 512 ;
513 [label=<gini = 0.0<br/>samples = 1<br/>value = [0, 0, 0, 0, 1, 0, 0, 0, 0, 0]<br/>class = Creator>, fillcolor="#39e5c5ff"] ;
511 -> 513 ;
514 [label=<gini = 0.0<br/>samples = 2<br/>value = [0, 0, 0, 0, 0, 2, 0, 0, 0, 0]<br/>class = Duplo>, fillcolor="#399de5ff"] ;
510 -> 514 ;
515 [label=<gini = 0.0<br/>samples = 3<br/>value = [0, 0, 0, 0, 0, 3, 0, 0, 0, 0]<br/>class = Duplo>, fillcolor="#399de5ff"] ;
501 -> 515 ;
516 [label=<Blue &le; 0.291<br/>gini = 0.278<br/>samples = 6<br/>value = [5, 1, 0, 0, 0, 0, 0, 0, 0, 0]<br/>class = Airport>, fillcolor="#e58139cc"] ;
500 -> 516 ;
517 [label=<gini = 0.0<br/>samples = 5<br/>value = [5, 0, 0, 0, 0, 0, 0, 0, 0, 0]<br/>class = Airport>, fillcolor="#e58139ff"] ;
516 -> 517 ;
518 [label=<gini = 0.0<br/>samples = 1<br/>value = [0, 1, 0, 0, 0, 0, 0, 0, 0, 0]<br/>class = Basic Set>, fillcolor="#e2e539ff"] ;
516 -> 518 ;
519 [label=<Trans-Clear &le; 0.054<br/>gini = 0.51<br/>samples = 28<br/>value = [2, 19, 1, 0, 1, 4, 0, 0, 1, 0]<br/>class = Basic Set>, fillcolor="#e2e5399f"] ;
499 -> 519 ;
520 [label=<Lime &le; 0.076<br/>gini = 0.438<br/>samples = 26<br/>value = [1, 19, 1, 0, 0, 4, 0, 0, 1, 0]<br/>class = Basic Set>, fillcolor="#e2e539ae"] ;
519 -> 520 ;
521 [label=<Sand Green &le; 0.071<br/>gini = 0.296<br/>samples = 18<br/>value = [1, 15, 1, 0, 0, 0, 0, 0, 1, 0]<br/>class = Basic Set>, fillcolor="#e2e539d2"] ;
520 -> 521 ;
522 [label=<Trans-Dark Blue &le; 0.017<br/>gini = 0.215<br/>samples = 17<br/>value = [1, 15, 1, 0, 0, 0, 0, 0, 0, 0]<br/>class = Basic Set>, fillcolor="#e2e539df"] ;
521 -> 522 ;
523 [label=<Flat Silver &le; 0.188<br/>gini = 0.117<br/>samples = 16<br/>value = [0, 15, 1, 0, 0, 0, 0, 0, 0, 0]<br/>class = Basic Set>, fillcolor="#e2e539ee"] ;
522 -> 523 ;
524 [label=<gini = 0.0<br/>samples = 15<br/>value = [0, 15, 0, 0, 0, 0, 0, 0, 0, 0]<br/>class = Basic Set>, fillcolor="#e2e539ff"] ;
523 -> 524 ;
525 [label=<gini = 0.0<br/>samples = 1<br/>value = [0, 0, 1, 0, 0, 0, 0, 0, 0, 0]<br/>class = City>, fillcolor="#7be539ff"] ;
523 -> 525 ;
526 [label=<gini = 0.0<br/>samples = 1<br/>value = [1, 0, 0, 0, 0, 0, 0, 0, 0, 0]<br/>class = Airport>, fillcolor="#e58139ff"] ;
522 -> 526 ;
527 [label=<gini = 0.0<br/>samples = 1<br/>value = [0, 0, 0, 0, 0, 0, 0, 0, 1, 0]<br/>class = Star Wars>, fillcolor="#e539c0ff"] ;
521 -> 527 ;
528 [label=<Bright Green &le; 0.119<br/>gini = 0.5<br/>samples = 8<br/>value = [0, 4, 0, 0, 0, 4, 0, 0, 0, 0]<br/>class = Basic Set>, fillcolor="#e2e53900"] ;
520 -> 528 ;
529 [label=<gini = 0.0<br/>samples = 3<br/>value = [0, 0, 0, 0, 0, 3, 0, 0, 0, 0]<br/>class = Duplo>, fillcolor="#399de5ff"] ;
528 -> 529 ;
530 [label=<Bright Pink &le; 0.012<br/>gini = 0.32<br/>samples = 5<br/>value = [0, 4, 0, 0, 0, 1, 0, 0, 0, 0]<br/>class = Basic Set>, fillcolor="#e2e539bf"] ;
528 -> 530 ;
531 [label=<gini = 0.0<br/>samples = 4<br/>value = [0, 4, 0, 0, 0, 0, 0, 0, 0, 0]<br/>class = Basic Set>, fillcolor="#e2e539ff"] ;
530 -> 531 ;
532 [label=<gini = 0.0<br/>samples = 1<br/>value = [0, 0, 0, 0, 0, 1, 0, 0, 0, 0]<br/>class = Duplo>, fillcolor="#399de5ff"] ;
530 -> 532 ;
533 [label=<White &le; 0.095<br/>gini = 0.5<br/>samples = 2<br/>value = [1, 0, 0, 0, 1, 0, 0, 0, 0, 0]<br/>class = Airport>, fillcolor="#e5813900"] ;
519 -> 533 ;
534 [label=<gini = 0.0<br/>samples = 1<br/>value = [0, 0, 0, 0, 1, 0, 0, 0, 0, 0]<br/>class = Creator>, fillcolor="#39e5c5ff"] ;
533 -> 534 ;
535 [label=<gini = 0.0<br/>samples = 1<br/>value = [1, 0, 0, 0, 0, 0, 0, 0, 0, 0]<br/>class = Airport>, fillcolor="#e58139ff"] ;
533 -> 535 ;
536 [label=<Trans-Orange &le; 0.002<br/>gini = 0.218<br/>samples = 93<br/>value = [3, 82, 0, 0, 4, 4, 0, 0, 0, 0]<br/>class = Basic Set>, fillcolor="#e2e539df"] ;
498 -> 536 ;
537 [label=<Green &le; 0.231<br/>gini = 0.167<br/>samples = 90<br/>value = [1, 82, 0, 0, 3, 4, 0, 0, 0, 0]<br/>class = Basic Set>, fillcolor="#e2e539e7"] ;
536 -> 537 ;
538 [label=<Bright Green &le; 0.007<br/>gini = 0.13<br/>samples = 88<br/>value = [1, 82, 0, 0, 3, 2, 0, 0, 0, 0]<br/>class = Basic Set>, fillcolor="#e2e539ed"] ;
537 -> 538 ;
539 [label=<Blue &le; 0.328<br/>gini = 0.09<br/>samples = 86<br/>value = [1, 82, 0, 0, 2, 1, 0, 0, 0, 0]<br/>class = Basic Set>, fillcolor="#e2e539f3"] ;
538 -> 539 ;
540 [label=<Fabuland Brown &le; 0.026<br/>gini = 0.069<br/>samples = 85<br/>value = [1, 82, 0, 0, 2, 0, 0, 0, 0, 0]<br/>class = Basic Set>, fillcolor="#e2e539f6"] ;
539 -> 540 ;
541 [label=<Dark Turquoise &le; 0.006<br/>gini = 0.046<br/>samples = 84<br/>value = [0, 82, 0, 0, 2, 0, 0, 0, 0, 0]<br/>class = Basic Set>, fillcolor="#e2e539f9"] ;
540 -> 541 ;
542 [label=<Trans-Yellow &le; 0.005<br/>gini = 0.024<br/>samples = 82<br/>value = [0, 81, 0, 0, 1, 0, 0, 0, 0, 0]<br/>class = Basic Set>, fillcolor="#e2e539fc"] ;
541 -> 542 ;
543 [label=<gini = 0.0<br/>samples = 76<br/>value = [0, 76, 0, 0, 0, 0, 0, 0, 0, 0]<br/>class = Basic Set>, fillcolor="#e2e539ff"] ;
542 -> 543 ;
544 [label=<Blue &le; 0.175<br/>gini = 0.278<br/>samples = 6<br/>value = [0, 5, 0, 0, 1, 0, 0, 0, 0, 0]<br/>class = Basic Set>, fillcolor="#e2e539cc"] ;
542 -> 544 ;
545 [label=<gini = 0.0<br/>samples = 5<br/>value = [0, 5, 0, 0, 0, 0, 0, 0, 0, 0]<br/>class = Basic Set>, fillcolor="#e2e539ff"] ;
544 -> 545 ;
546 [label=<gini = 0.0<br/>samples = 1<br/>value = [0, 0, 0, 0, 1, 0, 0, 0, 0, 0]<br/>class = Creator>, fillcolor="#39e5c5ff"] ;
544 -> 546 ;
547 [label=<Sand Green &le; 0.011<br/>gini = 0.5<br/>samples = 2<br/>value = [0, 1, 0, 0, 1, 0, 0, 0, 0, 0]<br/>class = Basic Set>, fillcolor="#e2e53900"] ;
541 -> 547 ;
548 [label=<gini = 0.0<br/>samples = 1<br/>value = [0, 0, 0, 0, 1, 0, 0, 0, 0, 0]<br/>class = Creator>, fillcolor="#39e5c5ff"] ;
547 -> 548 ;
549 [label=<gini = 0.0<br/>samples = 1<br/>value = [0, 1, 0, 0, 0, 0, 0, 0, 0, 0]<br/>class = Basic Set>, fillcolor="#e2e539ff"] ;
547 -> 549 ;
550 [label=<gini = 0.0<br/>samples = 1<br/>value = [1, 0, 0, 0, 0, 0, 0, 0, 0, 0]<br/>class = Airport>, fillcolor="#e58139ff"] ;
540 -> 550 ;
551 [label=<gini = 0.0<br/>samples = 1<br/>value = [0, 0, 0, 0, 0, 1, 0, 0, 0, 0]<br/>class = Duplo>, fillcolor="#399de5ff"] ;
539 -> 551 ;
552 [label=<Bright Green &le; 0.028<br/>gini = 0.5<br/>samples = 2<br/>value = [0, 0, 0, 0, 1, 1, 0, 0, 0, 0]<br/>class = Creator>, fillcolor="#39e5c500"] ;
538 -> 552 ;
553 [label=<gini = 0.0<br/>samples = 1<br/>value = [0, 0, 0, 0, 1, 0, 0, 0, 0, 0]<br/>class = Creator>, fillcolor="#39e5c5ff"] ;
552 -> 553 ;
554 [label=<gini = 0.0<br/>samples = 1<br/>value = [0, 0, 0, 0, 0, 1, 0, 0, 0, 0]<br/>class = Duplo>, fillcolor="#399de5ff"] ;
552 -> 554 ;
555 [label=<gini = 0.0<br/>samples = 2<br/>value = [0, 0, 0, 0, 0, 2, 0, 0, 0, 0]<br/>class = Duplo>, fillcolor="#399de5ff"] ;
537 -> 555 ;
556 [label=<Green &le; 0.057<br/>gini = 0.444<br/>samples = 3<br/>value = [2, 0, 0, 0, 1, 0, 0, 0, 0, 0]<br/>class = Airport>, fillcolor="#e581397f"] ;
536 -> 556 ;
557 [label=<gini = 0.0<br/>samples = 2<br/>value = [2, 0, 0, 0, 0, 0, 0, 0, 0, 0]<br/>class = Airport>, fillcolor="#e58139ff"] ;
556 -> 557 ;
558 [label=<gini = 0.0<br/>samples = 1<br/>value = [0, 0, 0, 0, 1, 0, 0, 0, 0, 0]<br/>class = Creator>, fillcolor="#39e5c5ff"] ;
556 -> 558 ;
559 [label=<Yellow &le; 0.203<br/>gini = 0.698<br/>samples = 173<br/>value = [15, 9, 34, 85, 15, 2, 0, 2, 0, 11]<br/>class = Construction>, fillcolor="#39e55e5e"] ;
391 -> 559 ;
560 [label=<Trans-Clear &le; 0.004<br/>gini = 0.766<br/>samples = 92<br/>value = [7, 5, 32, 27, 7, 2, 0, 2, 0, 10]<br/>class = City>, fillcolor="#7be53914"] ;
559 -> 560 ;
561 [label=<Light Gray &le; 0.012<br/>gini = 0.682<br/>samples = 56<br/>value = [4, 0, 29, 9, 5, 2, 0, 2, 0, 5]<br/>class = City>, fillcolor="#7be5396d"] ;
560 -> 561 ;
562 [label=<Light Bluish Gray &le; 0.203<br/>gini = 0.544<br/>samples = 44<br/>value = [2, 0, 29, 4, 3, 2, 0, 2, 0, 2]<br/>class = City>, fillcolor="#7be5399f"] ;
561 -> 562 ;
563 [label=<Dark Brown &le; 0.017<br/>gini = 0.443<br/>samples = 38<br/>value = [2, 0, 28, 1, 3, 1, 0, 2, 0, 1]<br/>class = City>, fillcolor="#7be539b6"] ;
562 -> 563 ;
564 [label=<Trans-Neon Green &le; 0.01<br/>gini = 0.386<br/>samples = 36<br/>value = [2, 0, 28, 1, 1, 1, 0, 2, 0, 1]<br/>class = City>, fillcolor="#7be539c3"] ;
563 -> 564 ;
565 [label=<Dark Pink &le; 0.045<br/>gini = 0.315<br/>samples = 34<br/>value = [1, 0, 28, 1, 0, 1, 0, 2, 0, 1]<br/>class = City>, fillcolor="#7be539cf"] ;
564 -> 565 ;
566 [label=<Dark Bluish Gray &le; 0.311<br/>gini = 0.274<br/>samples = 33<br/>value = [1, 0, 28, 1, 0, 0, 0, 2, 0, 1]<br/>class = City>, fillcolor="#7be539d6"] ;
565 -> 566 ;
567 [label=<Dark Turquoise &le; 0.045<br/>gini = 0.229<br/>samples = 32<br/>value = [1, 0, 28, 0, 0, 0, 0, 2, 0, 1]<br/>class = City>, fillcolor="#7be539dd"] ;
566 -> 567 ;
568 [label=<Yellow &le; 0.202<br/>gini = 0.179<br/>samples = 31<br/>value = [1, 0, 28, 0, 0, 0, 0, 2, 0, 0]<br/>class = City>, fillcolor="#7be539e5"] ;
567 -> 568 ;
569 [label=<Trans-Black &le; 0.081<br/>gini = 0.124<br/>samples = 30<br/>value = [0, 0, 28, 0, 0, 0, 0, 2, 0, 0]<br/>class = City>, fillcolor="#7be539ed"] ;
568 -> 569 ;
570 [label=<Blue &le; 0.5<br/>gini = 0.067<br/>samples = 29<br/>value = [0, 0, 28, 0, 0, 0, 0, 1, 0, 0]<br/>class = City>, fillcolor="#7be539f6"] ;
569 -> 570 ;
571 [label=<gini = 0.0<br/>samples = 28<br/>value = [0, 0, 28, 0, 0, 0, 0, 0, 0, 0]<br/>class = City>, fillcolor="#7be539ff"] ;
570 -> 571 ;
572 [label=<gini = 0.0<br/>samples = 1<br/>value = [0, 0, 0, 0, 0, 0, 0, 1, 0, 0]<br/>class = Ninjago>, fillcolor="#a339e5ff"] ;
570 -> 572 ;
573 [label=<gini = 0.0<br/>samples = 1<br/>value = [0, 0, 0, 0, 0, 0, 0, 1, 0, 0]<br/>class = Ninjago>, fillcolor="#a339e5ff"] ;
569 -> 573 ;
574 [label=<gini = 0.0<br/>samples = 1<br/>value = [1, 0, 0, 0, 0, 0, 0, 0, 0, 0]<br/>class = Airport>, fillcolor="#e58139ff"] ;
568 -> 574 ;
575 [label=<gini = 0.0<br/>samples = 1<br/>value = [0, 0, 0, 0, 0, 0, 0, 0, 0, 1]<br/>class = Technic>, fillcolor="#e53958ff"] ;
567 -> 575 ;
576 [label=<gini = 0.0<br/>samples = 1<br/>value = [0, 0, 0, 1, 0, 0, 0, 0, 0, 0]<br/>class = Construction>, fillcolor="#39e55eff"] ;
566 -> 576 ;
577 [label=<gini = 0.0<br/>samples = 1<br/>value = [0, 0, 0, 0, 0, 1, 0, 0, 0, 0]<br/>class = Duplo>, fillcolor="#399de5ff"] ;
565 -> 577 ;
578 [label=<White &le; 0.067<br/>gini = 0.5<br/>samples = 2<br/>value = [1, 0, 0, 0, 1, 0, 0, 0, 0, 0]<br/>class = Airport>, fillcolor="#e5813900"] ;
564 -> 578 ;
579 [label=<gini = 0.0<br/>samples = 1<br/>value = [0, 0, 0, 0, 1, 0, 0, 0, 0, 0]<br/>class = Creator>, fillcolor="#39e5c5ff"] ;
578 -> 579 ;
580 [label=<gini = 0.0<br/>samples = 1<br/>value = [1, 0, 0, 0, 0, 0, 0, 0, 0, 0]<br/>class = Airport>, fillcolor="#e58139ff"] ;
578 -> 580 ;
581 [label=<gini = 0.0<br/>samples = 2<br/>value = [0, 0, 0, 0, 2, 0, 0, 0, 0, 0]<br/>class = Creator>, fillcolor="#39e5c5ff"] ;
563 -> 581 ;
582 [label=<Dark Bluish Gray &le; 0.037<br/>gini = 0.667<br/>samples = 6<br/>value = [0, 0, 1, 3, 0, 1, 0, 0, 0, 1]<br/>class = Construction>, fillcolor="#39e55e66"] ;
562 -> 582 ;
583 [label=<Yellow &le; 0.063<br/>gini = 0.667<br/>samples = 3<br/>value = [0, 0, 1, 0, 0, 1, 0, 0, 0, 1]<br/>class = City>, fillcolor="#7be53900"] ;
582 -> 583 ;
584 [label=<gini = 0.0<br/>samples = 1<br/>value = [0, 0, 0, 0, 0, 1, 0, 0, 0, 0]<br/>class = Duplo>, fillcolor="#399de5ff"] ;
583 -> 584 ;
585 [label=<Dark Bluish Gray &le; 0.016<br/>gini = 0.5<br/>samples = 2<br/>value = [0, 0, 1, 0, 0, 0, 0, 0, 0, 1]<br/>class = City>, fillcolor="#7be53900"] ;
583 -> 585 ;
586 [label=<gini = 0.0<br/>samples = 1<br/>value = [0, 0, 1, 0, 0, 0, 0, 0, 0, 0]<br/>class = City>, fillcolor="#7be539ff"] ;
585 -> 586 ;
587 [label=<gini = 0.0<br/>samples = 1<br/>value = [0, 0, 0, 0, 0, 0, 0, 0, 0, 1]<br/>class = Technic>, fillcolor="#e53958ff"] ;
585 -> 587 ;
588 [label=<gini = 0.0<br/>samples = 3<br/>value = [0, 0, 0, 3, 0, 0, 0, 0, 0, 0]<br/>class = Construction>, fillcolor="#39e55eff"] ;
582 -> 588 ;
589 [label=<Trans-Neon Green &le; 0.024<br/>gini = 0.708<br/>samples = 12<br/>value = [2, 0, 0, 5, 2, 0, 0, 0, 0, 3]<br/>class = Construction>, fillcolor="#39e55e39"] ;
561 -> 589 ;
590 [label=<[No Color] &le; 0.005<br/>gini = 0.62<br/>samples = 10<br/>value = [2, 0, 0, 5, 0, 0, 0, 0, 0, 3]<br/>class = Construction>, fillcolor="#39e55e49"] ;
589 -> 590 ;
591 [label=<Dark Gray &le; 0.006<br/>gini = 0.278<br/>samples = 6<br/>value = [0, 0, 0, 5, 0, 0, 0, 0, 0, 1]<br/>class = Construction>, fillcolor="#39e55ecc"] ;
590 -> 591 ;
592 [label=<gini = 0.0<br/>samples = 1<br/>value = [0, 0, 0, 0, 0, 0, 0, 0, 0, 1]<br/>class = Technic>, fillcolor="#e53958ff"] ;
591 -> 592 ;
593 [label=<gini = 0.0<br/>samples = 5<br/>value = [0, 0, 0, 5, 0, 0, 0, 0, 0, 0]<br/>class = Construction>, fillcolor="#39e55eff"] ;
591 -> 593 ;
594 [label=<Yellow &le; 0.11<br/>gini = 0.5<br/>samples = 4<br/>value = [2, 0, 0, 0, 0, 0, 0, 0, 0, 2]<br/>class = Airport>, fillcolor="#e5813900"] ;
590 -> 594 ;
595 [label=<gini = 0.0<br/>samples = 2<br/>value = [2, 0, 0, 0, 0, 0, 0, 0, 0, 0]<br/>class = Airport>, fillcolor="#e58139ff"] ;
594 -> 595 ;
596 [label=<gini = 0.0<br/>samples = 2<br/>value = [0, 0, 0, 0, 0, 0, 0, 0, 0, 2]<br/>class = Technic>, fillcolor="#e53958ff"] ;
594 -> 596 ;
597 [label=<gini = 0.0<br/>samples = 2<br/>value = [0, 0, 0, 0, 2, 0, 0, 0, 0, 0]<br/>class = Creator>, fillcolor="#39e5c5ff"] ;
589 -> 597 ;
598 [label=<White &le; 0.059<br/>gini = 0.694<br/>samples = 36<br/>value = [3, 5, 3, 18, 2, 0, 0, 0, 0, 5]<br/>class = Construction>, fillcolor="#39e55e6b"] ;
560 -> 598 ;
599 [label=<Green &le; 0.007<br/>gini = 0.49<br/>samples = 25<br/>value = [1, 0, 2, 17, 0, 0, 0, 0, 0, 5]<br/>class = Construction>, fillcolor="#39e55e99"] ;
598 -> 599 ;
600 [label=<Flat Silver &le; 0.003<br/>gini = 0.351<br/>samples = 22<br/>value = [0, 0, 0, 17, 0, 0, 0, 0, 0, 5]<br/>class = Construction>, fillcolor="#39e55eb4"] ;
599 -> 600 ;
601 [label=<Yellow &le; 0.081<br/>gini = 0.255<br/>samples = 20<br/>value = [0, 0, 0, 17, 0, 0, 0, 0, 0, 3]<br/>class = Construction>, fillcolor="#39e55ed2"] ;
600 -> 601 ;
602 [label=<Yellow &le; 0.063<br/>gini = 0.444<br/>samples = 3<br/>value = [0, 0, 0, 1, 0, 0, 0, 0, 0, 2]<br/>class = Technic>, fillcolor="#e539587f"] ;
601 -> 602 ;
603 [label=<gini = 0.0<br/>samples = 1<br/>value = [0, 0, 0, 1, 0, 0, 0, 0, 0, 0]<br/>class = Construction>, fillcolor="#39e55eff"] ;
602 -> 603 ;
604 [label=<gini = 0.0<br/>samples = 2<br/>value = [0, 0, 0, 0, 0, 0, 0, 0, 0, 2]<br/>class = Technic>, fillcolor="#e53958ff"] ;
602 -> 604 ;
605 [label=<Trans-Clear &le; 0.004<br/>gini = 0.111<br/>samples = 17<br/>value = [0, 0, 0, 16, 0, 0, 0, 0, 0, 1]<br/>class = Construction>, fillcolor="#39e55eef"] ;
601 -> 605 ;
606 [label=<gini = 0.0<br/>samples = 1<br/>value = [0, 0, 0, 0, 0, 0, 0, 0, 0, 1]<br/>class = Technic>, fillcolor="#e53958ff"] ;
605 -> 606 ;
607 [label=<gini = 0.0<br/>samples = 16<br/>value = [0, 0, 0, 16, 0, 0, 0, 0, 0, 0]<br/>class = Construction>, fillcolor="#39e55eff"] ;
605 -> 607 ;
608 [label=<gini = 0.0<br/>samples = 2<br/>value = [0, 0, 0, 0, 0, 0, 0, 0, 0, 2]<br/>class = Technic>, fillcolor="#e53958ff"] ;
600 -> 608 ;
609 [label=<Black &le; 0.319<br/>gini = 0.444<br/>samples = 3<br/>value = [1, 0, 2, 0, 0, 0, 0, 0, 0, 0]<br/>class = City>, fillcolor="#7be5397f"] ;
599 -> 609 ;
610 [label=<gini = 0.0<br/>samples = 2<br/>value = [0, 0, 2, 0, 0, 0, 0, 0, 0, 0]<br/>class = City>, fillcolor="#7be539ff"] ;
609 -> 610 ;
611 [label=<gini = 0.0<br/>samples = 1<br/>value = [1, 0, 0, 0, 0, 0, 0, 0, 0, 0]<br/>class = Airport>, fillcolor="#e58139ff"] ;
609 -> 611 ;
612 [label=<Light Bluish Gray &le; 0.04<br/>gini = 0.711<br/>samples = 11<br/>value = [2, 5, 1, 1, 2, 0, 0, 0, 0, 0]<br/>class = Basic Set>, fillcolor="#e2e53955"] ;
598 -> 612 ;
613 [label=<Trans-Red &le; 0.026<br/>gini = 0.408<br/>samples = 7<br/>value = [2, 5, 0, 0, 0, 0, 0, 0, 0, 0]<br/>class = Basic Set>, fillcolor="#e2e53999"] ;
612 -> 613 ;
614 [label=<gini = 0.0<br/>samples = 5<br/>value = [0, 5, 0, 0, 0, 0, 0, 0, 0, 0]<br/>class = Basic Set>, fillcolor="#e2e539ff"] ;
613 -> 614 ;
615 [label=<gini = 0.0<br/>samples = 2<br/>value = [2, 0, 0, 0, 0, 0, 0, 0, 0, 0]<br/>class = Airport>, fillcolor="#e58139ff"] ;
613 -> 615 ;
616 [label=<Trans-Red &le; 0.012<br/>gini = 0.625<br/>samples = 4<br/>value = [0, 0, 1, 1, 2, 0, 0, 0, 0, 0]<br/>class = Creator>, fillcolor="#39e5c555"] ;
612 -> 616 ;
617 [label=<gini = 0.0<br/>samples = 2<br/>value = [0, 0, 0, 0, 2, 0, 0, 0, 0, 0]<br/>class = Creator>, fillcolor="#39e5c5ff"] ;
616 -> 617 ;
618 [label=<Trans-Clear &le; 0.018<br/>gini = 0.5<br/>samples = 2<br/>value = [0, 0, 1, 1, 0, 0, 0, 0, 0, 0]<br/>class = City>, fillcolor="#7be53900"] ;
616 -> 618 ;
619 [label=<gini = 0.0<br/>samples = 1<br/>value = [0, 0, 0, 1, 0, 0, 0, 0, 0, 0]<br/>class = Construction>, fillcolor="#39e55eff"] ;
618 -> 619 ;
620 [label=<gini = 0.0<br/>samples = 1<br/>value = [0, 0, 1, 0, 0, 0, 0, 0, 0, 0]<br/>class = City>, fillcolor="#7be539ff"] ;
618 -> 620 ;
621 [label=<Trans-Black &le; 0.052<br/>gini = 0.465<br/>samples = 81<br/>value = [8, 4, 2, 58, 8, 0, 0, 0, 0, 1]<br/>class = Construction>, fillcolor="#39e55eaf"] ;
559 -> 621 ;
622 [label=<Trans-Light Blue &le; 0.029<br/>gini = 0.415<br/>samples = 77<br/>value = [8, 4, 1, 58, 5, 0, 0, 0, 0, 1]<br/>class = Construction>, fillcolor="#39e55eb9"] ;
621 -> 622 ;
623 [label=<White &le; 0.114<br/>gini = 0.373<br/>samples = 74<br/>value = [5, 4, 1, 58, 5, 0, 0, 0, 0, 1]<br/>class = Construction>, fillcolor="#39e55ec4"] ;
622 -> 623 ;
624 [label=<Yellow &le; 0.55<br/>gini = 0.34<br/>samples = 72<br/>value = [5, 2, 1, 58, 5, 0, 0, 0, 0, 1]<br/>class = Construction>, fillcolor="#39e55eca"] ;
623 -> 624 ;
625 [label=<Medium Blue &le; 0.016<br/>gini = 0.303<br/>samples = 70<br/>value = [5, 1, 1, 58, 5, 0, 0, 0, 0, 0]<br/>class = Construction>, fillcolor="#39e55ed0"] ;
624 -> 625 ;
626 [label=<Blue &le; 0.001<br/>gini = 0.263<br/>samples = 68<br/>value = [4, 1, 0, 58, 5, 0, 0, 0, 0, 0]<br/>class = Construction>, fillcolor="#39e55ed7"] ;
625 -> 626 ;
627 [label=<White &le; 0.058<br/>gini = 0.5<br/>samples = 24<br/>value = [4, 0, 0, 16, 4, 0, 0, 0, 0, 0]<br/>class = Construction>, fillcolor="#39e55e99"] ;
626 -> 627 ;
628 [label=<Black &le; 0.535<br/>gini = 0.43<br/>samples = 22<br/>value = [4, 0, 0, 16, 2, 0, 0, 0, 0, 0]<br/>class = Construction>, fillcolor="#39e55eaa"] ;
627 -> 628 ;
629 [label=<Dark Bluish Gray &le; 0.211<br/>gini = 0.381<br/>samples = 21<br/>value = [4, 0, 0, 16, 1, 0, 0, 0, 0, 0]<br/>class = Construction>, fillcolor="#39e55eb4"] ;
628 -> 629 ;
630 [label=<Reddish Brown &le; 0.126<br/>gini = 0.32<br/>samples = 20<br/>value = [4, 0, 0, 16, 0, 0, 0, 0, 0, 0]<br/>class = Construction>, fillcolor="#39e55ebf"] ;
629 -> 630 ;
631 [label=<Milky White &le; 0.01<br/>gini = 0.266<br/>samples = 19<br/>value = [3, 0, 0, 16, 0, 0, 0, 0, 0, 0]<br/>class = Construction>, fillcolor="#39e55ecf"] ;
630 -> 631 ;
632 [label=<Black &le; 0.404<br/>gini = 0.198<br/>samples = 18<br/>value = [2, 0, 0, 16, 0, 0, 0, 0, 0, 0]<br/>class = Construction>, fillcolor="#39e55edf"] ;
631 -> 632 ;
633 [label=<Trans-Green &le; 0.001<br/>gini = 0.117<br/>samples = 16<br/>value = [1, 0, 0, 15, 0, 0, 0, 0, 0, 0]<br/>class = Construction>, fillcolor="#39e55eee"] ;
632 -> 633 ;
634 [label=<gini = 0.0<br/>samples = 14<br/>value = [0, 0, 0, 14, 0, 0, 0, 0, 0, 0]<br/>class = Construction>, fillcolor="#39e55eff"] ;
633 -> 634 ;
635 [label=<Trans-Red &le; 0.015<br/>gini = 0.5<br/>samples = 2<br/>value = [1, 0, 0, 1, 0, 0, 0, 0, 0, 0]<br/>class = Airport>, fillcolor="#e5813900"] ;
633 -> 635 ;
636 [label=<gini = 0.0<br/>samples = 1<br/>value = [1, 0, 0, 0, 0, 0, 0, 0, 0, 0]<br/>class = Airport>, fillcolor="#e58139ff"] ;
635 -> 636 ;
637 [label=<gini = 0.0<br/>samples = 1<br/>value = [0, 0, 0, 1, 0, 0, 0, 0, 0, 0]<br/>class = Construction>, fillcolor="#39e55eff"] ;
635 -> 637 ;
638 [label=<Yellow &le; 0.443<br/>gini = 0.5<br/>samples = 2<br/>value = [1, 0, 0, 1, 0, 0, 0, 0, 0, 0]<br/>class = Airport>, fillcolor="#e5813900"] ;
632 -> 638 ;
639 [label=<gini = 0.0<br/>samples = 1<br/>value = [0, 0, 0, 1, 0, 0, 0, 0, 0, 0]<br/>class = Construction>, fillcolor="#39e55eff"] ;
638 -> 639 ;
